<?xml version="1.0"?>
<opencv_storage>
<cascade>
  <stageType>BOOST</stageType>
  <featureType>HAAR</featureType>
  <height>20</height>
  <width>20</width>
  <stageParams>
    <boostType>GAB</boostType>
    <minHitRate>9.9500000476837158e-01</minHitRate>
    <maxFalseAlarm>5.0000000000000000e-01</maxFalseAlarm>
    <weightTrimRate>9.4999999999999996e-01</weightTrimRate>
    <maxDepth>1</maxDepth>
    <maxWeakCount>100</maxWeakCount></stageParams>
  <featureParams>
    <maxCatCount>0</maxCatCount>
    <featSize>1</featSize>
    <mode>BASIC</mode></featureParams>
  <stageNum>21</stageNum>
  <stages>
    <!-- stage 0 -->
    <_>
      <maxWeakCount>5</maxWeakCount>
      <stageThreshold>-5.0399881601333618e-01</stageThreshold>
      <weakClassifiers>
        <_>
          <internalNodes>
            0 -1 66 2.0930898189544678e-01</internalNodes>
          <leafValues>
            -4.7758212685585022e-01 9.5028311014175415e-01</leafValues></_>
        <_>
          <internalNodes>
            0 -1 170 3.3010318875312805e-02</internalNodes>
          <leafValues>
            -2.4778997898101807e-01 7.5744092464447021e-01</leafValues></_>
        <_>
          <internalNodes>
            0 -1 292 -8.4657935076393187e-05</internalNodes>
          <leafValues>
            -6.8775510787963867e-01 3.5118991136550903e-01</leafValues></_>
        <_>
          <internalNodes>
            0 -1 284 -4.8567907651886344e-04</internalNodes>
          <leafValues>
            -8.5678446292877197e-01 2.3008082807064056e-01</leafValues></_>
        <_>
          <internalNodes>
            0 -1 26 -2.2278702259063721e-01</internalNodes>
          <leafValues>
            8.8351732492446899e-01 -2.7826306223869324e-01</leafValues></_></weakClassifiers></_>
    <!-- stage 1 -->
    <_>
      <maxWeakCount>5</maxWeakCount>
      <stageThreshold>-6.0762465000152588e-01</stageThreshold>
      <weakClassifiers>
        <_>
          <internalNodes>
            0 -1 67 2.6380640268325806e-01</internalNodes>
          <leafValues>
            -4.0985867381095886e-01 9.5394361019134521e-01</leafValues></_>
        <_>
          <internalNodes>
            0 -1 304 -3.8661222788505256e-04</internalNodes>
          <leafValues>
            6.3735055923461914e-01 -4.2238840460777283e-01</leafValues></_>
        <_>
          <internalNodes>
            0 -1 120 7.3008965700864792e-03</internalNodes>
          <leafValues>
            -2.9855874180793762e-01 7.0473796129226685e-01</leafValues></_>
        <_>
          <internalNodes>
            0 -1 36 -4.2256176471710205e-01</internalNodes>
          <leafValues>
            8.6058598756790161e-01 -1.6582961380481720e-01</leafValues></_>
        <_>
          <internalNodes>
            0 -1 165 4.6170938760042191e-02</internalNodes>
          <leafValues>
            -2.9759865999221802e-01 6.8901079893112183e-01</leafValues></_></weakClassifiers></_>
    <!-- stage 2 -->
    <_>
      <maxWeakCount>9</maxWeakCount>
      <stageThreshold>-9.9964219331741333e-01</stageThreshold>
      <weakClassifiers>
        <_>
          <internalNodes>
            0 -1 67 2.9181331396102905e-01</internalNodes>
          <leafValues>
            -3.5139769315719604e-01 9.1039168834686279e-01</leafValues></_>
        <_>
          <internalNodes>
            0 -1 373 4.2823218973353505e-04</internalNodes>
          <leafValues>
            3.9162039756774902e-01 -7.8242987394332886e-01</leafValues></_>
        <_>
          <internalNodes>
            0 -1 21 3.2803484797477722e-01</internalNodes>
          <leafValues>
            -2.8348565101623535e-01 6.6156804561614990e-01</leafValues></_>
        <_>
          <internalNodes>
            0 -1 386 4.7943025128915906e-04</internalNodes>
          <leafValues>
            2.1022422611713409e-01 -8.6185324192047119e-01</leafValues></_>
        <_>
          <internalNodes>
            0 -1 92 1.2989619746804237e-02</internalNodes>
          <leafValues>
            -2.5218302011489868e-01 7.6922625303268433e-01</leafValues></_>
        <_>
          <internalNodes>
            0 -1 306 -5.9665986336767673e-03</internalNodes>
          <leafValues>
            7.0358419418334961e-01 -2.3687335848808289e-01</leafValues></_>
        <_>
          <internalNodes>
            0 -1 310 1.7792342696338892e-03</internalNodes>
          <leafValues>
            -2.5704169273376465e-01 5.1580101251602173e-01</leafValues></_>
        <_>
          <internalNodes>
            0 -1 77 -3.3587310463190079e-02</internalNodes>
          <leafValues>
            6.4646434783935547e-01 -2.8538247942924500e-01</leafValues></_>
        <_>
          <internalNodes>
            0 -1 360 4.6587077667936683e-04</internalNodes>
          <leafValues>
            2.0510767400264740e-01 -7.2353148460388184e-01</leafValues></_></weakClassifiers></_>
    <!-- stage 3 -->
    <_>
      <maxWeakCount>12</maxWeakCount>
      <stageThreshold>-1.2912774085998535e+00</stageThreshold>
      <weakClassifiers>
        <_>
          <internalNodes>
            0 -1 17 4.3409720063209534e-01</internalNodes>
          <leafValues>
            -3.0012026429176331e-01 8.6549288034439087e-01</leafValues></_>
        <_>
          <internalNodes>
            0 -1 316 4.7438330948352814e-03</internalNodes>
          <leafValues>
            -2.0324720442295074e-01 6.7561095952987671e-01</leafValues></_>
        <_>
          <internalNodes>
            0 -1 86 -4.0962491184473038e-03</internalNodes>
          <leafValues>
            4.9742072820663452e-01 -2.7004423737525940e-01</leafValues></_>
        <_>
          <internalNodes>
            0 -1 397 -1.9820488523691893e-04</internalNodes>
          <leafValues>
            -7.5117897987365723e-01 1.7855080962181091e-01</leafValues></_>
        <_>
          <internalNodes>
            0 -1 26 -3.1579616665840149e-01</internalNodes>
          <leafValues>
            8.9552885293960571e-01 -1.6901963949203491e-01</leafValues></_>
        <_>
          <internalNodes>
            0 -1 457 -7.5752694101538509e-05</internalNodes>
          <leafValues>
            -7.0560657978057861e-01 2.3190680146217346e-01</leafValues></_>
        <_>
          <internalNodes>
            0 -1 174 6.3630081713199615e-03</internalNodes>
          <leafValues>
            -3.2310098409652710e-01 4.5173797011375427e-01</leafValues></_>
        <_>
          <internalNodes>
            0 -1 445 2.5892802514135838e-03</internalNodes>
          <leafValues>
            -3.5488146543502808e-01 3.2910254597663879e-01</leafValues></_>
        <_>
          <internalNodes>
            0 -1 400 3.4163834061473608e-04</internalNodes>
          <leafValues>
            1.5071548521518707e-01 -7.5153577327728271e-01</leafValues></_>
        <_>
          <internalNodes>
            0 -1 217 1.8190089613199234e-02</internalNodes>
          <leafValues>
            -1.7668443918228149e-01 7.6134216785430908e-01</leafValues></_>
        <_>
          <internalNodes>
            0 -1 374 2.8415545821189880e-03</internalNodes>
          <leafValues>
            1.6871039569377899e-01 -7.9347234964370728e-01</leafValues></_>
        <_>
          <internalNodes>
            0 -1 209 1.4154335949569941e-03</internalNodes>
          <leafValues>
            -3.5109779238700867e-01 3.4095591306686401e-01</leafValues></_></weakClassifiers></_>
    <!-- stage 4 -->
    <_>
      <maxWeakCount>11</maxWeakCount>
      <stageThreshold>-9.0096187591552734e-01</stageThreshold>
      <weakClassifiers>
        <_>
          <internalNodes>
            0 -1 67 3.4601026773452759e-01</internalNodes>
          <leafValues>
            -2.2427441179752350e-01 8.3906668424606323e-01</leafValues></_>
        <_>
          <internalNodes>
            0 -1 313 1.4254793059080839e-03</internalNodes>
          <leafValues>
            -3.6649176478385925e-01 4.2684283852577209e-01</leafValues></_>
        <_>
          <internalNodes>
            0 -1 287 -6.1639570049010217e-05</internalNodes>
          <leafValues>
            -6.8851065635681152e-01 2.0021493732929230e-01</leafValues></_>
        <_>
          <internalNodes>
            0 -1 280 -1.2587907258421183e-04</internalNodes>
          <leafValues>
            -7.1462446451187134e-01 1.7135794460773468e-01</leafValues></_>
        <_>
          <internalNodes>
            0 -1 378 2.6267909561283886e-04</internalNodes>
          <leafValues>
            1.1900829523801804e-01 -7.9236567020416260e-01</leafValues></_>
        <_>
          <internalNodes>
            0 -1 303 1.9762176088988781e-03</internalNodes>
          <leafValues>
            -2.2821041941642761e-01 4.8852831125259399e-01</leafValues></_>
        <_>
          <internalNodes>
            0 -1 88 -1.1513188481330872e-02</internalNodes>
          <leafValues>
            4.9375998973846436e-01 -2.4857567250728607e-01</leafValues></_>
        <_>
          <internalNodes>
            0 -1 183 -1.0619205422699451e-03</internalNodes>
          <leafValues>
            3.2929709553718567e-01 -3.1837558746337891e-01</leafValues></_>
        <_>
          <internalNodes>
            0 -1 13 -6.8145322799682617e-01</internalNodes>
          <leafValues>
            8.2720601558685303e-01 -1.2386781722307205e-01</leafValues></_>
        <_>
          <internalNodes>
            0 -1 371 -1.7273635603487492e-03</internalNodes>
          <leafValues>
            2.6203107833862305e-01 -4.8808249831199646e-01</leafValues></_>
        <_>
          <internalNodes>
            0 -1 295 6.2754610553383827e-04</internalNodes>
          <leafValues>
            1.2289545685052872e-01 -7.9346632957458496e-01</leafValues></_></weakClassifiers></_>
    <!-- stage 5 -->
    <_>
      <maxWeakCount>12</maxWeakCount>
      <stageThreshold>-9.1988921165466309e-01</stageThreshold>
      <weakClassifiers>
        <_>
          <internalNodes>
            0 -1 19 4.3620324134826660e-01</internalNodes>
          <leafValues>
            -1.9344472885131836e-01 8.3573400974273682e-01</leafValues></_>
        <_>
          <internalNodes>
            0 -1 234 5.6747766211628914e-03</internalNodes>
          <leafValues>
            -2.0025180280208588e-01 6.3886547088623047e-01</leafValues></_>
        <_>
          <internalNodes>
            0 -1 321 5.4838159121572971e-03</internalNodes>
          <leafValues>
            -2.6915365457534790e-01 4.9356523156166077e-01</leafValues></_>
        <_>
          <internalNodes>
            0 -1 347 -2.6900973170995712e-04</internalNodes>
          <leafValues>
            -7.7625739574432373e-01 1.2220092862844467e-01</leafValues></_>
        <_>
          <internalNodes>
            0 -1 347 4.0680123493075371e-04</internalNodes>
          <leafValues>
            1.4414450526237488e-01 -7.0629447698593140e-01</leafValues></_>
        <_>
          <internalNodes>
            0 -1 458 -6.1500031733885407e-05</internalNodes>
          <leafValues>
            -6.7860251665115356e-01 1.3348542153835297e-01</leafValues></_>
        <_>
          <internalNodes>
            0 -1 408 2.5013342383317649e-04</internalNodes>
          <leafValues>
            -3.6542084813117981e-01 2.6086366176605225e-01</leafValues></_>
        <_>
          <internalNodes>
            0 -1 286 1.1807517707347870e-01</internalNodes>
          <leafValues>
            -1.5245312452316284e-01 7.2828251123428345e-01</leafValues></_>
        <_>
          <internalNodes>
            0 -1 123 4.6566268429160118e-03</internalNodes>
          <leafValues>
            -2.9056638479232788e-01 4.2411351203918457e-01</leafValues></_>
        <_>
          <internalNodes>
            0 -1 214 6.1742095276713371e-03</internalNodes>
          <leafValues>
            -1.6809326410293579e-01 5.5551880598068237e-01</leafValues></_>
        <_>
          <internalNodes>
            0 -1 455 -9.1651403636205941e-05</internalNodes>
          <leafValues>
            -6.1765867471694946e-01 1.6087678074836731e-01</leafValues></_>
        <_>
          <internalNodes>
            0 -1 344 3.7272041663527489e-03</internalNodes>
          <leafValues>
            -2.8417468070983887e-01 3.7037897109985352e-01</leafValues></_></weakClassifiers></_>
    <!-- stage 6 -->
    <_>
      <maxWeakCount>17</maxWeakCount>
      <stageThreshold>-1.1802147626876831e+00</stageThreshold>
      <weakClassifiers>
        <_>
          <internalNodes>
            0 -1 39 4.3658700585365295e-01</internalNodes>
          <leafValues>
            -1.7782750725746155e-01 7.6112949848175049e-01</leafValues></_>
        <_>
          <internalNodes>
            0 -1 169 -6.2438277527689934e-03</internalNodes>
          <leafValues>
            4.3153500556945801e-01 -3.0224040150642395e-01</leafValues></_>
        <_>
          <internalNodes>
            0 -1 410 1.0099731385707855e-02</internalNodes>
          <leafValues>
            -3.1456270813941956e-01 3.6503750085830688e-01</leafValues></_>
        <_>
          <internalNodes>
            0 -1 50 7.1832099929451942e-03</internalNodes>
          <leafValues>
            1.9338144361972809e-01 -5.2884483337402344e-01</leafValues></_>
        <_>
          <internalNodes>
            0 -1 341 -2.5583250680938363e-04</internalNodes>
          <leafValues>
            -7.6235663890838623e-01 1.2599757313728333e-01</leafValues></_>
        <_>
          <internalNodes>
            0 -1 341 6.1013520462438464e-04</internalNodes>
          <leafValues>
            1.0000675171613693e-01 -7.3807895183563232e-01</leafValues></_>
        <_>
          <internalNodes>
            0 -1 384 2.6424275711178780e-03</internalNodes>
          <leafValues>
            8.6584538221359253e-02 -7.6535564661026001e-01</leafValues></_>
        <_>
          <internalNodes>
            0 -1 311 1.5164224896579981e-03</internalNodes>
          <leafValues>
            -2.6018762588500977e-01 3.2519763708114624e-01</leafValues></_>
        <_>
          <internalNodes>
            0 -1 91 1.3276373967528343e-02</internalNodes>
          <leafValues>
            -2.0018689334392548e-01 6.2888485193252563e-01</leafValues></_>
        <_>
          <internalNodes>
            0 -1 256 1.9248272292315960e-03</internalNodes>
          <leafValues>
            -2.6733237504959106e-01 2.9014870524406433e-01</leafValues></_>
        <_>
          <internalNodes>
            0 -1 447 2.3839116329327226e-04</internalNodes>
          <leafValues>
            1.5296775102615356e-01 -6.9131177663803101e-01</leafValues></_>
        <_>
          <internalNodes>
            0 -1 416 3.4871608950197697e-03</internalNodes>
          <leafValues>
            -2.2375202178955078e-01 4.1144025325775146e-01</leafValues></_>
        <_>
          <internalNodes>
            0 -1 163 -1.4882963150739670e-02</internalNodes>
          <leafValues>
            6.2682706117630005e-01 -1.2497601658105850e-01</leafValues></_>
        <_>
          <internalNodes>
            0 -1 475 7.6688136905431747e-03</internalNodes>
          <leafValues>
            -1.7796094715595245e-01 4.3197384476661682e-01</leafValues></_>
        <_>
          <internalNodes>
            0 -1 290 -5.1529561460483819e-05</internalNodes>
          <leafValues>
            -6.3289624452590942e-01 1.3567909598350525e-01</leafValues></_>
        <_>
          <internalNodes>
            0 -1 395 -8.1549878814257681e-05</internalNodes>
          <leafValues>
            -6.0918802022933960e-01 1.2436193972826004e-01</leafValues></_>
        <_>
          <internalNodes>
            0 -1 54 -3.8369148969650269e-02</internalNodes>
          <leafValues>
            6.8595474958419800e-01 -1.1873342841863632e-01</leafValues></_></weakClassifiers></_>
    <!-- stage 7 -->
    <_>
      <maxWeakCount>19</maxWeakCount>
      <stageThreshold>-1.2157089710235596e+00</stageThreshold>
      <weakClassifiers>
        <_>
          <internalNodes>
            0 -1 65 3.9505499601364136e-01</internalNodes>
          <leafValues>
            -1.9310344755649567e-01 7.3397791385650635e-01</leafValues></_>
        <_>
          <internalNodes>
            0 -1 503 -1.0407246649265289e-02</internalNodes>
          <leafValues>
            5.4126483201980591e-01 -1.4793604612350464e-01</leafValues></_>
        <_>
          <internalNodes>
            0 -1 293 1.5368767781183124e-03</internalNodes>
          <leafValues>
            1.4278054237365723e-01 -7.6440125703811646e-01</leafValues></_>
        <_>
          <internalNodes>
            0 -1 146 1.8421586137264967e-03</internalNodes>
          <leafValues>
            -2.4120004475116730e-01 4.1727972030639648e-01</leafValues></_>
        <_>
          <internalNodes>
            0 -1 402 -5.0613212806638330e-05</internalNodes>
          <leafValues>
            -6.5691024065017700e-01 9.5811553299427032e-02</leafValues></_>
        <_>
          <internalNodes>
            0 -1 10 -3.7692105770111084e-01</internalNodes>
          <leafValues>
            6.0380756855010986e-01 -1.5000894665718079e-01</leafValues></_>
        <_>
          <internalNodes>
            0 -1 268 -1.5562844928354025e-03</internalNodes>
          <leafValues>
            2.2933156788349152e-01 -4.2138996720314026e-01</leafValues></_>
        <_>
          <internalNodes>
            0 -1 367 2.5725353043526411e-04</internalNodes>
          <leafValues>
            1.0689613968133926e-01 -7.7379113435745239e-01</leafValues></_>
        <_>
          <internalNodes>
            0 -1 250 1.9022347405552864e-03</internalNodes>
          <leafValues>
            -2.8647392988204956e-01 2.9727348685264587e-01</leafValues></_>
        <_>
          <internalNodes>
            0 -1 386 3.8675923133268952e-04</internalNodes>
          <leafValues>
            8.9088015258312225e-02 -7.8379815816879272e-01</leafValues></_>
        <_>
          <internalNodes>
            0 -1 505 7.9789198935031891e-03</internalNodes>
          <leafValues>
            -1.6335409879684448e-01 4.6560978889465332e-01</leafValues></_>
        <_>
          <internalNodes>
            0 -1 158 7.4505484662950039e-03</internalNodes>
          <leafValues>
            -1.5000082552433014e-01 4.9336969852447510e-01</leafValues></_>
        <_>
          <internalNodes>
            0 -1 99 -1.9545808434486389e-02</internalNodes>
          <leafValues>
            4.5669957995414734e-01 -1.7882059514522552e-01</leafValues></_>
        <_>
          <internalNodes>
            0 -1 296 1.6865458746906370e-04</internalNodes>
          <leafValues>
            -3.5144603252410889e-01 2.2743417322635651e-01</leafValues></_>
        <_>
          <internalNodes>
            0 -1 418 2.1682088263332844e-03</internalNodes>
          <leafValues>
            -3.3683282136917114e-01 2.3801872134208679e-01</leafValues></_>
        <_>
          <internalNodes>
            0 -1 134 2.1739635616540909e-02</internalNodes>
          <leafValues>
            -1.0476097464561462e-01 7.9024881124496460e-01</leafValues></_>
        <_>
          <internalNodes>
            0 -1 27 5.5653899908065796e-02</internalNodes>
          <leafValues>
            -1.5094070136547089e-01 5.2685856819152832e-01</leafValues></_>
        <_>
          <internalNodes>
            0 -1 114 -5.3687361069023609e-03</internalNodes>
          <leafValues>
            4.5382329821586609e-01 -1.5356810390949249e-01</leafValues></_>
        <_>
          <internalNodes>
            0 -1 274 2.0310366526246071e-03</internalNodes>
          <leafValues>
            1.2143840640783310e-01 -6.8211978673934937e-01</leafValues></_></weakClassifiers></_>
    <!-- stage 8 -->
    <_>
      <maxWeakCount>22</maxWeakCount>
      <stageThreshold>-1.0755504369735718e+00</stageThreshold>
      <weakClassifiers>
        <_>
          <internalNodes>
            0 -1 78 2.0799311995506287e-01</internalNodes>
          <leafValues>
            -6.8948492407798767e-02 6.9968527555465698e-01</leafValues></_>
        <_>
          <internalNodes>
            0 -1 217 -1.1648289859294891e-02</internalNodes>
          <leafValues>
            5.7006877660751343e-01 -1.9034819304943085e-01</leafValues></_>
        <_>
          <internalNodes>
            0 -1 436 -1.9216700457036495e-04</internalNodes>
          <leafValues>
            -6.4596945047378540e-01 1.4467746019363403e-01</leafValues></_>
        <_>
          <internalNodes>
            0 -1 89 -8.1859044730663300e-03</internalNodes>
          <leafValues>
            3.7917533516883850e-01 -2.2859567403793335e-01</leafValues></_>
        <_>
          <internalNodes>
            0 -1 24 3.5116857290267944e-01</internalNodes>
          <leafValues>
            -1.7174977064132690e-01 5.4891234636306763e-01</leafValues></_>
        <_>
          <internalNodes>
            0 -1 433 -1.2220919597893953e-04</internalNodes>
          <leafValues>
            -5.7753127813339233e-01 1.5941795706748962e-01</leafValues></_>
        <_>
          <internalNodes>
            0 -1 419 3.4528863616287708e-03</internalNodes>
          <leafValues>
            -2.3574869334697723e-01 3.8618215918540955e-01</leafValues></_>
        <_>
          <internalNodes>
            0 -1 59 1.5055797994136810e-02</internalNodes>
          <leafValues>
            1.6279554367065430e-01 -6.1803025007247925e-01</leafValues></_>
        <_>
          <internalNodes>
            0 -1 439 -3.5206333268433809e-04</internalNodes>
          <leafValues>
            -7.3354965448379517e-01 6.0735385864973068e-02</leafValues></_>
        <_>
          <internalNodes>
            0 -1 186 2.4104880867525935e-04</internalNodes>
          <leafValues>
            -3.2576751708984375e-01 2.2320342063903809e-01</leafValues></_>
        <_>
          <internalNodes>
            0 -1 142 2.2376080974936485e-02</internalNodes>
          <leafValues>
            -1.1559110134840012e-01 7.4400013685226440e-01</leafValues></_>
        <_>
          <internalNodes>
            0 -1 44 2.9120322316884995e-02</internalNodes>
          <leafValues>
            1.2275686860084534e-01 -6.3164484500885010e-01</leafValues></_>
        <_>
          <internalNodes>
            0 -1 381 5.2093679551035166e-04</internalNodes>
          <leafValues>
            1.1088615655899048e-01 -5.4183906316757202e-01</leafValues></_>
        <_>
          <internalNodes>
            0 -1 281 1.3138577342033386e-03</internalNodes>
          <leafValues>
            -3.3096253871917725e-01 1.9911213219165802e-01</leafValues></_>
        <_>
          <internalNodes>
            0 -1 468 1.0226998478174210e-02</internalNodes>
          <leafValues>
            -1.3543626666069031e-01 5.3576087951660156e-01</leafValues></_>
        <_>
          <internalNodes>
            0 -1 430 -1.5380375552922487e-03</internalNodes>
          <leafValues>
            3.1560462713241577e-01 -1.8442651629447937e-01</leafValues></_>
        <_>
          <internalNodes>
            0 -1 244 3.8290724158287048e-02</internalNodes>
          <leafValues>
            1.1041989922523499e-01 -6.5826165676116943e-01</leafValues></_>
        <_>
          <internalNodes>
            0 -1 448 6.4817123347893357e-04</internalNodes>
          <leafValues>
            8.4520578384399414e-02 -6.1574894189834595e-01</leafValues></_>
        <_>
          <internalNodes>
            0 -1 221 -1.7951416084542871e-03</internalNodes>
          <leafValues>
            4.7591549158096313e-01 -1.3667733967304230e-01</leafValues></_>
        <_>
          <internalNodes>
            0 -1 173 -1.8712180899456143e-03</internalNodes>
          <leafValues>
            3.5737124085426331e-01 -1.6820216178894043e-01</leafValues></_>
        <_>
          <internalNodes>
            0 -1 322 5.9297177940607071e-03</internalNodes>
          <leafValues>
            -1.6803087294101715e-01 3.3570140600204468e-01</leafValues></_>
        <_>
          <internalNodes>
            0 -1 389 -7.1898987516760826e-04</internalNodes>
          <leafValues>
            -6.4744609594345093e-01 1.1504983156919479e-01</leafValues></_></weakClassifiers></_>
    <!-- stage 9 -->
    <_>
      <maxWeakCount>24</maxWeakCount>
      <stageThreshold>-1.0496428012847900e+00</stageThreshold>
      <weakClassifiers>
        <_>
          <internalNodes>
            0 -1 12 4.8762431740760803e-01</internalNodes>
          <leafValues>
            -2.3281596601009369e-01 6.4320385456085205e-01</leafValues></_>
        <_>
          <internalNodes>
            0 -1 230 6.6381976939737797e-03</internalNodes>
          <leafValues>
            -2.0927298069000244e-01 4.3866598606109619e-01</leafValues></_>
        <_>
          <internalNodes>
            0 -1 30 -1.0917412117123604e-02</internalNodes>
          <leafValues>
            4.9681279063224792e-01 -1.7325249314308167e-01</leafValues></_>
        <_>
          <internalNodes>
            0 -1 137 -1.1253807693719864e-02</internalNodes>
          <leafValues>
            4.2116072773933411e-01 -1.6345413029193878e-01</leafValues></_>
        <_>
          <internalNodes>
            0 -1 364 2.2160720545798540e-03</internalNodes>
          <leafValues>
            1.2792842090129852e-01 -6.3700360059738159e-01</leafValues></_>
        <_>
          <internalNodes>
            0 -1 188 -4.0975795127451420e-04</internalNodes>
          <leafValues>
            2.2477173805236816e-01 -3.2984128594398499e-01</leafValues></_>
        <_>
          <internalNodes>
            0 -1 3 -1.2856829166412354e-01</internalNodes>
          <leafValues>
            6.4160656929016113e-01 -1.4235045015811920e-01</leafValues></_>
        <_>
          <internalNodes>
            0 -1 471 -1.6019532456994057e-02</internalNodes>
          <leafValues>
            3.4062716364860535e-01 -2.2417707741260529e-01</leafValues></_>
        <_>
          <internalNodes>
            0 -1 280 -7.1019894676283002e-05</internalNodes>
          <leafValues>
            -5.5206018686294556e-01 1.1042643338441849e-01</leafValues></_>
        <_>
          <internalNodes>
            0 -1 287 -1.4203539649315644e-05</internalNodes>
          <leafValues>
            -6.1418724060058594e-01 1.2399126589298248e-01</leafValues></_>
        <_>
          <internalNodes>
            0 -1 373 2.1987064974382520e-04</internalNodes>
          <leafValues>
            1.1186097562313080e-01 -5.8207947015762329e-01</leafValues></_>
        <_>
          <internalNodes>
            0 -1 96 1.1647480539977551e-02</internalNodes>
          <leafValues>
            8.7716877460479736e-02 -6.3313633203506470e-01</leafValues></_>
        <_>
          <internalNodes>
            0 -1 353 -3.4152943408116698e-04</internalNodes>
          <leafValues>
            -7.7269387245178223e-01 5.9082966297864914e-02</leafValues></_>
        <_>
          <internalNodes>
            0 -1 466 1.4442676911130548e-03</internalNodes>
          <leafValues>
            -1.7200949788093567e-01 3.3882486820220947e-01</leafValues></_>
        <_>
          <internalNodes>
            0 -1 411 -1.8342537805438042e-04</internalNodes>
          <leafValues>
            1.5551404654979706e-01 -4.1529420018196106e-01</leafValues></_>
        <_>
          <internalNodes>
            0 -1 494 1.5442378818988800e-02</internalNodes>
          <leafValues>
            -1.1014341562986374e-01 5.6758821010589600e-01</leafValues></_>
        <_>
          <internalNodes>
            0 -1 179 6.7730387672781944e-03</internalNodes>
          <leafValues>
            -1.6407339274883270e-01 3.6806401610374451e-01</leafValues></_>
        <_>
          <internalNodes>
            0 -1 358 2.6020114310085773e-03</internalNodes>
          <leafValues>
            -2.2082014381885529e-01 3.2974830269813538e-01</leafValues></_>
        <_>
          <internalNodes>
            0 -1 347 -1.5988665109034628e-04</internalNodes>
          <leafValues>
            -5.5710846185684204e-01 1.2484880536794662e-01</leafValues></_>
        <_>
          <internalNodes>
            0 -1 406 3.3297442132607102e-04</internalNodes>
          <leafValues>
            8.6600065231323242e-02 -6.1855334043502808e-01</leafValues></_>
        <_>
          <internalNodes>
            0 -1 227 -4.5126763870939612e-04</internalNodes>
          <leafValues>
            3.6908221244812012e-01 -1.6485811769962311e-01</leafValues></_>
        <_>
          <internalNodes>
            0 -1 406 -3.0697166221216321e-04</internalNodes>
          <leafValues>
            -4.4825878739356995e-01 1.2793423235416412e-01</leafValues></_>
        <_>
          <internalNodes>
            0 -1 155 5.9400894679129124e-04</internalNodes>
          <leafValues>
            -2.3463393747806549e-01 2.4200400710105896e-01</leafValues></_>
        <_>
          <internalNodes>
            0 -1 33 1.2455603107810020e-02</internalNodes>
          <leafValues>
            1.0701308399438858e-01 -5.4282957315444946e-01</leafValues></_></weakClassifiers></_>
    <!-- stage 10 -->
    <_>
      <maxWeakCount>25</maxWeakCount>
      <stageThreshold>-9.5300829410552979e-01</stageThreshold>
      <weakClassifiers>
        <_>
          <internalNodes>
            0 -1 61 3.6093005537986755e-01</internalNodes>
          <leafValues>
            -1.9392472505569458e-01 6.2519800662994385e-01</leafValues></_>
        <_>
          <internalNodes>
            0 -1 199 1.9440718460828066e-03</internalNodes>
          <leafValues>
            -2.7539151906967163e-01 3.3922225236892700e-01</leafValues></_>
        <_>
          <internalNodes>
            0 -1 429 1.9471000414341688e-03</internalNodes>
          <leafValues>
            -2.1567666530609131e-01 3.1904065608978271e-01</leafValues></_>
        <_>
          <internalNodes>
            0 -1 472 4.8230085521936417e-03</internalNodes>
          <leafValues>
            -1.1119700223207474e-01 5.7029891014099121e-01</leafValues></_>
        <_>
          <internalNodes>
            0 -1 23 3.9726603031158447e-01</internalNodes>
          <leafValues>
            -1.1129768192768097e-01 5.6960272789001465e-01</leafValues></_>
        <_>
          <internalNodes>
            0 -1 341 -1.7285683134105057e-04</internalNodes>
          <leafValues>
            -6.0627186298370361e-01 7.6912626624107361e-02</leafValues></_>
        <_>
          <internalNodes>
            0 -1 143 3.1628049910068512e-02</internalNodes>
          <leafValues>
            -8.9368075132369995e-02 7.8564512729644775e-01</leafValues></_>
        <_>
          <internalNodes>
            0 -1 442 -2.3035898630041629e-04</internalNodes>
          <leafValues>
            -6.6290640830993652e-01 1.0164465010166168e-01</leafValues></_>
        <_>
          <internalNodes>
            0 -1 458 -4.9739574023988098e-05</internalNodes>
          <leafValues>
            -5.7915866374969482e-01 9.3913584947586060e-02</leafValues></_>
        <_>
          <internalNodes>
            0 -1 246 1.3839385937899351e-03</internalNodes>
          <leafValues>
            -2.2365523874759674e-01 2.5349217653274536e-01</leafValues></_>
        <_>
          <internalNodes>
            0 -1 45 1.3367027975618839e-02</internalNodes>
          <leafValues>
            9.5225311815738678e-02 -5.1206374168395996e-01</leafValues></_>
        <_>
          <internalNodes>
            0 -1 324 7.4332384392619133e-03</internalNodes>
          <leafValues>
            8.1508658826351166e-02 -6.5110009908676147e-01</leafValues></_>
        <_>
          <internalNodes>
            0 -1 474 4.8869051970541477e-03</internalNodes>
          <leafValues>
            -1.8186706304550171e-01 3.2355597615242004e-01</leafValues></_>
        <_>
          <internalNodes>
            0 -1 49 -7.8459652140736580e-03</internalNodes>
          <leafValues>
            -4.7580400109291077e-01 1.1608571559190750e-01</leafValues></_>
        <_>
          <internalNodes>
            0 -1 58 6.2336008995771408e-03</internalNodes>
          <leafValues>
            1.0791735351085663e-01 -4.5299592614173889e-01</leafValues></_>
        <_>
          <internalNodes>
            0 -1 345 1.8278222996741533e-03</internalNodes>
          <leafValues>
            5.8722738176584244e-02 -8.1395047903060913e-01</leafValues></_>
        <_>
          <internalNodes>
            0 -1 124 -2.3819983471184969e-04</internalNodes>
          <leafValues>
            2.8246822953224182e-01 -1.9760064780712128e-01</leafValues></_>
        <_>
          <internalNodes>
            0 -1 108 5.7441676035523415e-03</internalNodes>
          <leafValues>
            -1.5591838955879211e-01 4.0932562947273254e-01</leafValues></_>
        <_>
          <internalNodes>
            0 -1 117 -4.4873877777718008e-04</internalNodes>
          <leafValues>
            4.0851730108261108e-01 -1.3727773725986481e-01</leafValues></_>
        <_>
          <internalNodes>
            0 -1 282 -2.9958412051200867e-04</internalNodes>
          <leafValues>
            -6.3323420286178589e-01 9.6376195549964905e-02</leafValues></_>
        <_>
          <internalNodes>
            0 -1 289 6.1610084958374500e-04</internalNodes>
          <leafValues>
            -2.2170676290988922e-01 2.6388752460479736e-01</leafValues></_>
        <_>
          <internalNodes>
            0 -1 412 6.8310112692415714e-04</internalNodes>
          <leafValues>
            -1.9309897720813751e-01 3.4194228053092957e-01</leafValues></_>
        <_>
          <internalNodes>
            0 -1 461 9.0514746261760592e-05</internalNodes>
          <leafValues>
            -2.9529637098312378e-01 1.7308738827705383e-01</leafValues></_>
        <_>
          <internalNodes>
            0 -1 285 -1.2018848210573196e-02</internalNodes>
          <leafValues>
            5.5659919977188110e-01 -1.1623904854059219e-01</leafValues></_>
        <_>
          <internalNodes>
            0 -1 261 -4.5232577249407768e-03</internalNodes>
          <leafValues>
            -7.1083903312683105e-01 1.0186003893613815e-01</leafValues></_></weakClassifiers></_>
    <!-- stage 11 -->
    <_>
      <maxWeakCount>27</maxWeakCount>
      <stageThreshold>-9.9389803409576416e-01</stageThreshold>
      <weakClassifiers>
        <_>
          <internalNodes>
            0 -1 19 4.7530835866928101e-01</internalNodes>
          <leafValues>
            -5.9544064104557037e-02 6.6938298940658569e-01</leafValues></_>
        <_>
          <internalNodes>
            0 -1 163 6.0015380382537842e-02</internalNodes>
          <leafValues>
            -1.6019469499588013e-01 5.0311470031738281e-01</leafValues></_>
        <_>
          <internalNodes>
            0 -1 399 -4.2522882722551003e-05</internalNodes>
          <leafValues>
            -5.6889331340789795e-01 1.2379603087902069e-01</leafValues></_>
        <_>
          <internalNodes>
            0 -1 213 5.3184209391474724e-03</internalNodes>
          <leafValues>
            -1.7862857878208160e-01 3.6614772677421570e-01</leafValues></_>
        <_>
          <internalNodes>
            0 -1 88 -4.2666178196668625e-03</internalNodes>
          <leafValues>
            2.6766499876976013e-01 -2.7052199840545654e-01</leafValues></_>
        <_>
          <internalNodes>
            0 -1 376 3.0079972930252552e-04</internalNodes>
          <leafValues>
            7.5046882033348083e-02 -8.1585198640823364e-01</leafValues></_>
        <_>
          <internalNodes>
            0 -1 486 4.0710967732593417e-04</internalNodes>
          <leafValues>
            -2.6607212424278259e-01 2.2580640017986298e-01</leafValues></_>
        <_>
          <internalNodes>
            0 -1 506 1.2664818204939365e-03</internalNodes>
          <leafValues>
            -1.5767526626586914e-01 3.7383723258972168e-01</leafValues></_>
        <_>
          <internalNodes>
            0 -1 378 1.6085340757854283e-04</internalNodes>
          <leafValues>
            1.3616386055946350e-01 -6.2436872720718384e-01</leafValues></_>
        <_>
          <internalNodes>
            0 -1 320 -1.8809577450156212e-03</internalNodes>
          <leafValues>
            3.8402613997459412e-01 -1.8087232112884521e-01</leafValues></_>
        <_>
          <internalNodes>
            0 -1 417 1.5038661658763885e-03</internalNodes>
          <leafValues>
            -2.5611892342567444e-01 2.5665062665939331e-01</leafValues></_>
        <_>
          <internalNodes>
            0 -1 398 -1.0611223115120083e-04</internalNodes>
          <leafValues>
            -5.2796620130538940e-01 9.3752421438694000e-02</leafValues></_>
        <_>
          <internalNodes>
            0 -1 390 1.3100949581712484e-03</internalNodes>
          <leafValues>
            1.5856869518756866e-01 -3.7731730937957764e-01</leafValues></_>
        <_>
          <internalNodes>
            0 -1 459 6.9244652986526489e-02</internalNodes>
          <leafValues>
            -8.7980069220066071e-02 6.8742316961288452e-01</leafValues></_>
        <_>
          <internalNodes>
            0 -1 185 7.1062101051211357e-04</internalNodes>
          <leafValues>
            -2.9663887619972229e-01 2.0270101726055145e-01</leafValues></_>
        <_>
          <internalNodes>
            0 -1 324 5.5152876302599907e-03</internalNodes>
          <leafValues>
            1.0173553973436356e-01 -6.0325765609741211e-01</leafValues></_>
        <_>
          <internalNodes>
            0 -1 212 2.2693969309329987e-02</internalNodes>
          <leafValues>
            6.0912739485502243e-02 -7.4333357810974121e-01</leafValues></_>
        <_>
          <internalNodes>
            0 -1 233 -4.2891111224889755e-03</internalNodes>
          <leafValues>
            4.8301675915718079e-01 -1.1980216950178146e-01</leafValues></_>
        <_>
          <internalNodes>
            0 -1 167 -6.5331296063959599e-03</internalNodes>
          <leafValues>
            4.2624324560165405e-01 -1.4039923250675201e-01</leafValues></_>
        <_>
          <internalNodes>
            0 -1 263 -5.0298225687583908e-05</internalNodes>
          <leafValues>
            -3.8541656732559204e-01 1.5192942321300507e-01</leafValues></_>
        <_>
          <internalNodes>
            0 -1 487 -8.7452435400336981e-04</internalNodes>
          <leafValues>
            -7.2271227836608887e-01 6.0186114162206650e-02</leafValues></_>
        <_>
          <internalNodes>
            0 -1 343 -1.7126849852502346e-03</internalNodes>
          <leafValues>
            1.0268989205360413e-01 -4.1875755786895752e-01</leafValues></_>
        <_>
          <internalNodes>
            0 -1 95 6.0806246474385262e-03</internalNodes>
          <leafValues>
            9.7606025636196136e-02 -5.2120608091354370e-01</leafValues></_>
        <_>
          <internalNodes>
            0 -1 162 1.5975233167409897e-02</internalNodes>
          <leafValues>
            -9.0798459947109222e-02 5.2664601802825928e-01</leafValues></_>
        <_>
          <internalNodes>
            0 -1 85 6.0715461149811745e-03</internalNodes>
          <leafValues>
            -1.4875589311122894e-01 4.2133435606956482e-01</leafValues></_>
        <_>
          <internalNodes>
            0 -1 82 -6.9721252657473087e-03</internalNodes>
          <leafValues>
            3.1133091449737549e-01 -1.4776942133903503e-01</leafValues></_>
        <_>
          <internalNodes>
            0 -1 121 -4.4782808981835842e-04</internalNodes>
          <leafValues>
            3.5344117879867554e-01 -1.4887386560440063e-01</leafValues></_></weakClassifiers></_>
    <!-- stage 12 -->
    <_>
      <maxWeakCount>32</maxWeakCount>
      <stageThreshold>-1.0286899805068970e+00</stageThreshold>
      <weakClassifiers>
        <_>
          <internalNodes>
            0 -1 62 5.1561403274536133e-01</internalNodes>
          <leafValues>
            2.7556091547012329e-02 6.6573905944824219e-01</leafValues></_>
        <_>
          <internalNodes>
            0 -1 307 1.3255939818918705e-02</internalNodes>
          <leafValues>
            -1.3583330810070038e-01 4.8263552784919739e-01</leafValues></_>
        <_>
          <internalNodes>
            0 -1 312 1.0699365520849824e-03</internalNodes>
          <leafValues>
            -3.3131247758865356e-01 2.2105632722377777e-01</leafValues></_>
        <_>
          <internalNodes>
            0 -1 457 -4.7962745156837627e-05</internalNodes>
          <leafValues>
            -5.7734906673431396e-01 9.7899369895458221e-02</leafValues></_>
        <_>
          <internalNodes>
            0 -1 288 4.7634923830628395e-03</internalNodes>
          <leafValues>
            7.9428151249885559e-02 -6.3475102186203003e-01</leafValues></_>
        <_>
          <internalNodes>
            0 -1 2 -1.4022165536880493e-01</internalNodes>
          <leafValues>
            6.2092161178588867e-01 -1.0283099859952927e-01</leafValues></_>
        <_>
          <internalNodes>
            0 -1 180 7.4030281975865364e-03</internalNodes>
          <leafValues>
            -2.2382321953773499e-01 3.0194157361984253e-01</leafValues></_>
        <_>
          <internalNodes>
            0 -1 348 -1.1021841783076525e-03</internalNodes>
          <leafValues>
            1.8777069449424744e-01 -2.6838406920433044e-01</leafValues></_>
        <_>
          <internalNodes>
            0 -1 365 2.5979883503168821e-04</internalNodes>
          <leafValues>
            1.7572543025016785e-01 -4.0183892846107483e-01</leafValues></_>
        <_>
          <internalNodes>
            0 -1 258 1.9266591407358646e-03</internalNodes>
          <leafValues>
            -3.0653563141822815e-01 1.5400375425815582e-01</leafValues></_>
        <_>
          <internalNodes>
            0 -1 373 2.4357777147088200e-04</internalNodes>
          <leafValues>
            1.0817493498325348e-01 -6.0759860277175903e-01</leafValues></_>
        <_>
          <internalNodes>
            0 -1 294 3.7661651731468737e-05</internalNodes>
          <leafValues>
            -3.1749078631401062e-01 1.5393395721912384e-01</leafValues></_>
        <_>
          <internalNodes>
            0 -1 397 -6.5470609115436673e-05</internalNodes>
          <leafValues>
            -5.2049630880355835e-01 8.1051796674728394e-02</leafValues></_>
        <_>
          <internalNodes>
            0 -1 441 3.9194105193018913e-04</internalNodes>
          <leafValues>
            -1.2501339614391327e-01 3.9239281415939331e-01</leafValues></_>
        <_>
          <internalNodes>
            0 -1 415 1.3558516278862953e-02</internalNodes>
          <leafValues>
            9.3946047127246857e-02 -7.2711378335952759e-01</leafValues></_>
        <_>
          <internalNodes>
            0 -1 91 1.1453669518232346e-02</internalNodes>
          <leafValues>
            -1.2980741262435913e-01 4.4080781936645508e-01</leafValues></_>
        <_>
          <internalNodes>
            0 -1 70 -3.3947583287954330e-03</internalNodes>
          <leafValues>
            2.4817484617233276e-01 -2.1138919889926910e-01</leafValues></_>
        <_>
          <internalNodes>
            0 -1 327 6.7461179569363594e-03</internalNodes>
          <leafValues>
            -2.0139549672603607e-01 2.3925678431987762e-01</leafValues></_>
        <_>
          <internalNodes>
            0 -1 516 6.0332827270030975e-02</internalNodes>
          <leafValues>
            8.6261227726936340e-02 -5.1142400503158569e-01</leafValues></_>
        <_>
          <internalNodes>
            0 -1 329 7.8032184392213821e-03</internalNodes>
          <leafValues>
            5.6526903063058853e-02 -7.5544327497482300e-01</leafValues></_>
        <_>
          <internalNodes>
            0 -1 242 8.7961344979703426e-04</internalNodes>
          <leafValues>
            -2.7207374572753906e-01 1.6136413812637329e-01</leafValues></_>
        <_>
          <internalNodes>
            0 -1 100 -6.6620208323001862e-02</internalNodes>
          <leafValues>
            3.5330423712730408e-01 -1.4745819568634033e-01</leafValues></_>
        <_>
          <internalNodes>
            0 -1 354 -2.7252672589384019e-04</internalNodes>
          <leafValues>
            -3.9899498224258423e-01 1.3067001104354858e-01</leafValues></_>
        <_>
          <internalNodes>
            0 -1 228 -1.1975010856986046e-03</internalNodes>
          <leafValues>
            3.5882407426834106e-01 -1.2922821938991547e-01</leafValues></_>
        <_>
          <internalNodes>
            0 -1 249 1.2837174581363797e-03</internalNodes>
          <leafValues>
            -2.1875971555709839e-01 2.1572171151638031e-01</leafValues></_>
        <_>
          <internalNodes>
            0 -1 295 -3.9334874600172043e-04</internalNodes>
          <leafValues>
            -4.8102310299873352e-01 9.9202863872051239e-02</leafValues></_>
        <_>
          <internalNodes>
            0 -1 363 1.4666430652141571e-03</internalNodes>
          <leafValues>
            -1.9683490693569183e-01 2.8909379243850708e-01</leafValues></_>
        <_>
          <internalNodes>
            0 -1 97 2.0680313929915428e-02</internalNodes>
          <leafValues>
            8.7288305163383484e-02 -5.5672246217727661e-01</leafValues></_>
        <_>
          <internalNodes>
            0 -1 350 -2.5520546478219330e-04</internalNodes>
          <leafValues>
            -5.0490361452102661e-01 7.6554797589778900e-02</leafValues></_>
        <_>
          <internalNodes>
            0 -1 254 2.3740939795970917e-02</internalNodes>
          <leafValues>
            4.4836170971393585e-02 -7.5870174169540405e-01</leafValues></_>
        <_>
          <internalNodes>
            0 -1 150 -8.6533818393945694e-03</internalNodes>
          <leafValues>
            -3.9150989055633545e-01 9.5971792936325073e-02</leafValues></_>
        <_>
          <internalNodes>
            0 -1 470 1.3253188692033291e-02</internalNodes>
          <leafValues>
            -8.9237414300441742e-02 4.7952184081077576e-01</leafValues></_></weakClassifiers></_>
    <!-- stage 13 -->
    <_>
      <maxWeakCount>37</maxWeakCount>
      <stageThreshold>-1.0258195400238037e+00</stageThreshold>
      <weakClassifiers>
        <_>
          <internalNodes>
            0 -1 485 -3.3779922872781754e-02</internalNodes>
          <leafValues>
            5.5270820856094360e-01 -1.1884754151105881e-01</leafValues></_>
        <_>
          <internalNodes>
            0 -1 177 -1.3257928658276796e-03</internalNodes>
          <leafValues>
            3.1401896476745605e-01 -2.3483476042747498e-01</leafValues></_>
        <_>
          <internalNodes>
            0 -1 305 -1.4168596826493740e-03</internalNodes>
          <leafValues>
            2.7968829870223999e-01 -2.2201623022556305e-01</leafValues></_>
        <_>
          <internalNodes>
            0 -1 10 -5.3711855411529541e-01</internalNodes>
          <leafValues>
            6.8634045124053955e-01 -8.9980386197566986e-02</leafValues></_>
        <_>
          <internalNodes>
            0 -1 221 4.0382351726293564e-03</internalNodes>
          <leafValues>
            -1.7675127089023590e-01 3.9705631136894226e-01</leafValues></_>
        <_>
          <internalNodes>
            0 -1 260 1.6643360140733421e-04</internalNodes>
          <leafValues>
            -2.4382646381855011e-01 2.4508869647979736e-01</leafValues></_>
        <_>
          <internalNodes>
            0 -1 287 -6.0354817833285779e-05</internalNodes>
          <leafValues>
            -6.4993435144424438e-01 6.9908291101455688e-02</leafValues></_>
        <_>
          <internalNodes>
            0 -1 218 1.0732885450124741e-02</internalNodes>
          <leafValues>
            6.2426183372735977e-02 -5.2230280637741089e-01</leafValues></_>
        <_>
          <internalNodes>
            0 -1 331 -3.4652423346415162e-04</internalNodes>
          <leafValues>
            -4.9831116199493408e-01 9.3237303197383881e-02</leafValues></_>
        <_>
          <internalNodes>
            0 -1 6 1.4679059386253357e-02</internalNodes>
          <leafValues>
            -7.7471822500228882e-02 5.8683782815933228e-01</leafValues></_>
        <_>
          <internalNodes>
            0 -1 41 1.1563885211944580e-01</internalNodes>
          <leafValues>
            -1.1219871789216995e-01 3.9914107322692871e-01</leafValues></_>
        <_>
          <internalNodes>
            0 -1 366 1.3823338667862117e-04</internalNodes>
          <leafValues>
            7.0259034633636475e-02 -5.6971657276153564e-01</leafValues></_>
        <_>
          <internalNodes>
            0 -1 342 2.0099407993257046e-03</internalNodes>
          <leafValues>
            -1.7131477594375610e-01 2.6800319552421570e-01</leafValues></_>
        <_>
          <internalNodes>
            0 -1 372 -4.2270957492291927e-03</internalNodes>
          <leafValues>
            -5.6172901391983032e-01 8.8481560349464417e-02</leafValues></_>
        <_>
          <internalNodes>
            0 -1 335 -1.9688911561388522e-04</internalNodes>
          <leafValues>
            -4.3590304255485535e-01 8.3152003586292267e-02</leafValues></_>
        <_>
          <internalNodes>
            0 -1 224 -2.1987617947161198e-03</internalNodes>
          <leafValues>
            2.7993917465209961e-01 -1.6437360644340515e-01</leafValues></_>
        <_>
          <internalNodes>
            0 -1 114 -7.2153061628341675e-03</internalNodes>
          <leafValues>
            3.7306401133537292e-01 -1.0101955384016037e-01</leafValues></_>
        <_>
          <internalNodes>
            0 -1 280 -8.5240884800441563e-05</internalNodes>
          <leafValues>
            -4.5788213610649109e-01 8.7127469480037689e-02</leafValues></_>
        <_>
          <internalNodes>
            0 -1 192 -3.5224313614889979e-04</internalNodes>
          <leafValues>
            1.9016039371490479e-01 -2.1250286698341370e-01</leafValues></_>
        <_>
          <internalNodes>
            0 -1 409 4.1991192847490311e-04</internalNodes>
          <leafValues>
            -2.7392581105232239e-01 1.4683464169502258e-01</leafValues></_>
        <_>
          <internalNodes>
            0 -1 98 -1.5814854204654694e-01</internalNodes>
          <leafValues>
            5.8201706409454346e-01 -7.1841657161712646e-02</leafValues></_>
        <_>
          <internalNodes>
            0 -1 452 1.2627239339053631e-03</internalNodes>
          <leafValues>
            -1.7823809385299683e-01 2.6242929697036743e-01</leafValues></_>
        <_>
          <internalNodes>
            0 -1 456 -6.9635367253795266e-05</internalNodes>
          <leafValues>
            -4.0630561113357544e-01 9.8693840205669403e-02</leafValues></_>
        <_>
          <internalNodes>
            0 -1 338 3.4437980502843857e-04</internalNodes>
          <leafValues>
            -2.8591808676719666e-01 1.4110995829105377e-01</leafValues></_>
        <_>
          <internalNodes>
            0 -1 332 6.6100023686885834e-03</internalNodes>
          <leafValues>
            5.8427251875400543e-02 -7.3225307464599609e-01</leafValues></_>
        <_>
          <internalNodes>
            0 -1 202 3.8851801946293563e-05</internalNodes>
          <leafValues>
            -1.6066594421863556e-01 2.4301894009113312e-01</leafValues></_>
        <_>
          <internalNodes>
            0 -1 360 1.6174842312466353e-04</internalNodes>
          <leafValues>
            1.0752838850021362e-01 -4.0916225314140320e-01</leafValues></_>
        <_>
          <internalNodes>
            0 -1 159 -8.2484781742095947e-03</internalNodes>
          <leafValues>
            5.1136624813079834e-01 -8.1782430410385132e-02</leafValues></_>
        <_>
          <internalNodes>
            0 -1 126 1.7609182745218277e-02</internalNodes>
          <leafValues>
            5.6821588426828384e-02 -7.4145650863647461e-01</leafValues></_>
        <_>
          <internalNodes>
            0 -1 404 -4.5447817683452740e-05</internalNodes>
          <leafValues>
            -4.7637230157852173e-01 6.1093542724847794e-02</leafValues></_>
        <_>
          <internalNodes>
            0 -1 154 -6.4425580203533173e-03</internalNodes>
          <leafValues>
            2.7782219648361206e-01 -1.2664924561977386e-01</leafValues></_>
        <_>
          <internalNodes>
            0 -1 104 5.5438898503780365e-02</internalNodes>
          <leafValues>
            -9.8875761032104492e-02 3.6152368783950806e-01</leafValues></_>
        <_>
          <internalNodes>
            0 -1 172 6.1596804298460484e-03</internalNodes>
          <leafValues>
            -1.0536802560091019e-01 3.9371013641357422e-01</leafValues></_>
        <_>
          <internalNodes>
            0 -1 405 2.2428641095757484e-03</internalNodes>
          <leafValues>
            6.7771531641483307e-02 -5.9268105030059814e-01</leafValues></_>
        <_>
          <internalNodes>
            0 -1 76 1.5441067516803741e-02</internalNodes>
          <leafValues>
            6.9740973412990570e-02 -4.6797639131546021e-01</leafValues></_>
        <_>
          <internalNodes>
            0 -1 226 -1.0088641196489334e-02</internalNodes>
          <leafValues>
            -3.3807507157325745e-01 9.7199149429798126e-02</leafValues></_>
        <_>
          <internalNodes>
            0 -1 365 -7.8294618288055062e-04</internalNodes>
          <leafValues>
            -7.8888475894927979e-01 3.8883760571479797e-02</leafValues></_></weakClassifiers></_>
    <!-- stage 14 -->
    <_>
      <maxWeakCount>41</maxWeakCount>
      <stageThreshold>-1.0241975784301758e+00</stageThreshold>
      <weakClassifiers>
        <_>
          <internalNodes>
            0 -1 25 2.2464661300182343e-01</internalNodes>
          <leafValues>
            -2.2536287084221840e-02 5.8131486177444458e-01</leafValues></_>
        <_>
          <internalNodes>
            0 -1 478 3.5648690536618233e-03</internalNodes>
          <leafValues>
            -2.2736543416976929e-01 3.3095377683639526e-01</leafValues></_>
        <_>
          <internalNodes>
            0 -1 46 2.7694739401340485e-02</internalNodes>
          <leafValues>
            1.2032616138458252e-01 -5.2043741941452026e-01</leafValues></_>
        <_>
          <internalNodes>
            0 -1 222 5.8957473374903202e-03</internalNodes>
          <leafValues>
            -1.6121749579906464e-01 3.9733359217643738e-01</leafValues></_>
        <_>
          <internalNodes>
            0 -1 474 -8.9318370446562767e-03</internalNodes>
          <leafValues>
            4.4198653101921082e-01 -1.5865866839885712e-01</leafValues></_>
        <_>
          <internalNodes>
            0 -1 345 -1.3930728891864419e-04</internalNodes>
          <leafValues>
            -4.8172682523727417e-01 1.5372955799102783e-01</leafValues></_>
        <_>
          <internalNodes>
            0 -1 28 7.1277305483818054e-02</internalNodes>
          <leafValues>
            -8.4982611238956451e-02 5.6541371345520020e-01</leafValues></_>
        <_>
          <internalNodes>
            0 -1 467 -1.0596437379717827e-02</internalNodes>
          <leafValues>
            6.2421017885208130e-01 -1.1715187877416611e-01</leafValues></_>
        <_>
          <internalNodes>
            0 -1 182 6.4815464429557323e-04</internalNodes>
          <leafValues>
            -2.0074398815631866e-01 2.2001184523105621e-01</leafValues></_>
        <_>
          <internalNodes>
            0 -1 447 1.0263030708301812e-04</internalNodes>
          <leafValues>
            1.0698784887790680e-01 -4.3964755535125732e-01</leafValues></_>
        <_>
          <internalNodes>
            0 -1 384 1.5922812744975090e-03</internalNodes>
          <leafValues>
            7.4862390756607056e-02 -5.3207641839981079e-01</leafValues></_>
        <_>
          <internalNodes>
            0 -1 314 -1.2594498693943024e-03</internalNodes>
          <leafValues>
            4.4496494531631470e-01 -1.2683928012847900e-01</leafValues></_>
        <_>
          <internalNodes>
            0 -1 465 6.5792456734925508e-04</internalNodes>
          <leafValues>
            -1.3809369504451752e-01 2.8121820092201233e-01</leafValues></_>
        <_>
          <internalNodes>
            0 -1 264 -1.6543953679502010e-03</internalNodes>
          <leafValues>
            3.2455772161483765e-01 -1.4841377735137939e-01</leafValues></_>
        <_>
          <internalNodes>
            0 -1 204 -6.6141001298092306e-05</internalNodes>
          <leafValues>
            -3.8193336129188538e-01 1.0997684299945831e-01</leafValues></_>
        <_>
          <internalNodes>
            0 -1 319 7.0985490456223488e-03</internalNodes>
          <leafValues>
            -1.4325571060180664e-01 2.9005706310272217e-01</leafValues></_>
        <_>
          <internalNodes>
            0 -1 320 -1.2562128249555826e-03</internalNodes>
          <leafValues>
            3.3699941635131836e-01 -1.2558947503566742e-01</leafValues></_>
        <_>
          <internalNodes>
            0 -1 433 3.6454957444220781e-04</internalNodes>
          <leafValues>
            9.6274666488170624e-02 -4.6943596005439758e-01</leafValues></_>
        <_>
          <internalNodes>
            0 -1 148 -5.6562586687505245e-03</internalNodes>
          <leafValues>
            -3.6721920967102051e-01 1.0272633284330368e-01</leafValues></_>
        <_>
          <internalNodes>
            0 -1 74 -2.9903410468250513e-03</internalNodes>
          <leafValues>
            -3.6542424559593201e-01 1.0058729350566864e-01</leafValues></_>
        <_>
          <internalNodes>
            0 -1 240 1.9450394902378321e-03</internalNodes>
          <leafValues>
            -1.7716862261295319e-01 2.1988289058208466e-01</leafValues></_>
        <_>
          <internalNodes>
            0 -1 227 -2.7796352514997125e-04</internalNodes>
          <leafValues>
            2.8400757908821106e-01 -1.3841378688812256e-01</leafValues></_>
        <_>
          <internalNodes>
            0 -1 235 6.2441065907478333e-02</internalNodes>
          <leafValues>
            -7.2521530091762543e-02 5.6338536739349365e-01</leafValues></_>
        <_>
          <internalNodes>
            0 -1 52 -1.0630202293395996e-01</internalNodes>
          <leafValues>
            6.6900008916854858e-01 -5.1890570670366287e-02</leafValues></_>
        <_>
          <internalNodes>
            0 -1 299 -3.6693578294944018e-05</internalNodes>
          <leafValues>
            1.1240258067846298e-01 -4.1534996032714844e-01</leafValues></_>
        <_>
          <internalNodes>
            0 -1 333 6.7177240271121264e-04</internalNodes>
          <leafValues>
            -2.7094042301177979e-01 1.4101102948188782e-01</leafValues></_>
        <_>
          <internalNodes>
            0 -1 442 7.1755915996618569e-05</internalNodes>
          <leafValues>
            1.4902669191360474e-01 -2.6380163431167603e-01</leafValues></_>
        <_>
          <internalNodes>
            0 -1 464 4.5083589851856232e-02</internalNodes>
          <leafValues>
            -4.8115063458681107e-02 7.8210222721099854e-01</leafValues></_>
        <_>
          <internalNodes>
            0 -1 317 7.4328586924821138e-04</internalNodes>
          <leafValues>
            -2.4614058434963226e-01 1.6853325068950653e-01</leafValues></_>
        <_>
          <internalNodes>
            0 -1 442 -6.1075326811987907e-05</internalNodes>
          <leafValues>
            -3.4418615698814392e-01 9.8071694374084473e-02</leafValues></_>
        <_>
          <internalNodes>
            0 -1 370 -4.0044914931058884e-03</internalNodes>
          <leafValues>
            -7.4622124433517456e-01 4.0112357586622238e-02</leafValues></_>
        <_>
          <internalNodes>
            0 -1 377 2.2636438370682299e-04</internalNodes>
          <leafValues>
            -2.0959454774856567e-01 1.7163115739822388e-01</leafValues></_>
        <_>
          <internalNodes>
            0 -1 507 2.2120242938399315e-03</internalNodes>
          <leafValues>
            -1.4361181855201721e-01 2.4179348349571228e-01</leafValues></_>
        <_>
          <internalNodes>
            0 -1 381 3.4248171141371131e-04</internalNodes>
          <leafValues>
            8.9726574718952179e-02 -3.6511409282684326e-01</leafValues></_>
        <_>
          <internalNodes>
            0 -1 191 1.6719443374313414e-04</internalNodes>
          <leafValues>
            -2.5332510471343994e-01 1.2414337694644928e-01</leafValues></_>
        <_>
          <internalNodes>
            0 -1 446 3.2918647048063576e-04</internalNodes>
          <leafValues>
            -1.1067630350589752e-01 3.5762733221054077e-01</leafValues></_>
        <_>
          <internalNodes>
            0 -1 113 6.0852849856019020e-03</internalNodes>
          <leafValues>
            -1.2357792258262634e-01 2.9534271359443665e-01</leafValues></_>
        <_>
          <internalNodes>
            0 -1 451 -2.3980526020750403e-04</internalNodes>
          <leafValues>
            -3.3562916517257690e-01 1.0692862421274185e-01</leafValues></_>
        <_>
          <internalNodes>
            0 -1 48 -5.1957846153527498e-04</internalNodes>
          <leafValues>
            -2.6361250877380371e-01 1.2491915374994278e-01</leafValues></_>
        <_>
          <internalNodes>
            0 -1 248 4.0410257875919342e-02</internalNodes>
          <leafValues>
            4.4004525989294052e-02 -7.1660202741622925e-01</leafValues></_>
        <_>
          <internalNodes>
            0 -1 378 7.2365895903203636e-05</internalNodes>
          <leafValues>
            8.3730809390544891e-02 -3.4124538302421570e-01</leafValues></_></weakClassifiers></_>
    <!-- stage 15 -->
    <_>
      <maxWeakCount>46</maxWeakCount>
      <stageThreshold>-1.0305614471435547e+00</stageThreshold>
      <weakClassifiers>
        <_>
          <internalNodes>
            0 -1 62 4.3922585248947144e-01</internalNodes>
          <leafValues>
            -2.0987916737794876e-02 5.4139173030853271e-01</leafValues></_>
        <_>
          <internalNodes>
            0 -1 56 -6.2252758070826530e-03</internalNodes>
          <leafValues>
            4.1299325227737427e-01 -1.4174258708953857e-01</leafValues></_>
        <_>
          <internalNodes>
            0 -1 433 -7.2529735916759819e-05</internalNodes>
          <leafValues>
            -4.2192676663398743e-01 1.0329353809356689e-01</leafValues></_>
        <_>
          <internalNodes>
            0 -1 143 1.9694402813911438e-02</internalNodes>
          <leafValues>
            -7.5834430754184723e-02 6.1040192842483521e-01</leafValues></_>
        <_>
          <internalNodes>
            0 -1 484 9.5291942125186324e-04</internalNodes>
          <leafValues>
            -1.7536690831184387e-01 2.5529375672340393e-01</leafValues></_>
        <_>
          <internalNodes>
            0 -1 382 1.3530531432479620e-03</internalNodes>
          <leafValues>
            -3.5373967885971069e-01 1.2537530064582825e-01</leafValues></_>
        <_>
          <internalNodes>
            0 -1 37 -3.6149412393569946e-01</internalNodes>
          <leafValues>
            7.1102344989776611e-01 -6.2112569808959961e-02</leafValues></_>
        <_>
          <internalNodes>
            0 -1 125 -9.9224573932588100e-04</internalNodes>
          <leafValues>
            2.8494194149971008e-01 -1.6748031973838806e-01</leafValues></_>
        <_>
          <internalNodes>
            0 -1 197 3.5928766010329127e-05</internalNodes>
          <leafValues>
            -2.6931327581405640e-01 1.4504796266555786e-01</leafValues></_>
        <_>
          <internalNodes>
            0 -1 448 8.3010090747848153e-05</internalNodes>
          <leafValues>
            8.4665834903717041e-02 -4.2082938551902771e-01</leafValues></_>
        <_>
          <internalNodes>
            0 -1 34 2.5589354336261749e-02</internalNodes>
          <leafValues>
            6.8355433642864227e-02 -6.5821689367294312e-01</leafValues></_>
        <_>
          <internalNodes>
            0 -1 491 -3.4020835300907493e-05</internalNodes>
          <leafValues>
            -4.4151973724365234e-01 6.4966715872287750e-02</leafValues></_>
        <_>
          <internalNodes>
            0 -1 488 3.5631201171781868e-05</internalNodes>
          <leafValues>
            -2.3309575021266937e-01 1.6304402053356171e-01</leafValues></_>
        <_>
          <internalNodes>
            0 -1 315 1.6783012542873621e-03</internalNodes>
          <leafValues>
            -1.2262693047523499e-01 2.7723449468612671e-01</leafValues></_>
        <_>
          <internalNodes>
            0 -1 350 -2.9125472065061331e-04</internalNodes>
          <leafValues>
            -5.7182735204696655e-01 5.2908297628164291e-02</leafValues></_>
        <_>
          <internalNodes>
            0 -1 476 4.0214095497503877e-04</internalNodes>
          <leafValues>
            -9.4453468918800354e-02 4.2200940847396851e-01</leafValues></_>
        <_>
          <internalNodes>
            0 -1 421 -4.4536519795656204e-02</internalNodes>
          <leafValues>
            1.3237860798835754e-01 -2.8227838873863220e-01</leafValues></_>
        <_>
          <internalNodes>
            0 -1 512 5.6957408785820007e-02</internalNodes>
          <leafValues>
            6.3291154801845551e-02 -4.7665905952453613e-01</leafValues></_>
        <_>
          <internalNodes>
            0 -1 31 3.7376396358013153e-02</internalNodes>
          <leafValues>
            6.0595329850912094e-02 -5.3063881397247314e-01</leafValues></_>
        <_>
          <internalNodes>
            0 -1 406 2.7025619056075811e-04</internalNodes>
          <leafValues>
            7.2006106376647949e-02 -4.6845647692680359e-01</leafValues></_>
        <_>
          <internalNodes>
            0 -1 129 -7.4242837727069855e-03</internalNodes>
          <leafValues>
            4.2765229940414429e-01 -8.8757470250129700e-02</leafValues></_>
        <_>
          <internalNodes>
            0 -1 28 6.2090031802654266e-02</internalNodes>
          <leafValues>
            -8.3321340382099152e-02 3.8707691431045532e-01</leafValues></_>
        <_>
          <internalNodes>
            0 -1 356 2.1005894523113966e-03</internalNodes>
          <leafValues>
            -1.5544436872005463e-01 2.2457148134708405e-01</leafValues></_>
        <_>
          <internalNodes>
            0 -1 392 -2.9707551002502441e-03</internalNodes>
          <leafValues>
            -6.1129528284072876e-01 6.7374646663665771e-02</leafValues></_>
        <_>
          <internalNodes>
            0 -1 395 -5.6783461332088336e-05</internalNodes>
          <leafValues>
            -4.3066453933715820e-01 8.0113209784030914e-02</leafValues></_>
        <_>
          <internalNodes>
            0 -1 399 -1.4461133105214685e-05</internalNodes>
          <leafValues>
            -4.8873287439346313e-01 7.6924204826354980e-02</leafValues></_>
        <_>
          <internalNodes>
            0 -1 252 1.2672576121985912e-03</internalNodes>
          <leafValues>
            -2.3290765285491943e-01 1.5988296270370483e-01</leafValues></_>
        <_>
          <internalNodes>
            0 -1 361 -1.0526228288654238e-04</internalNodes>
          <leafValues>
            -3.5792592167854309e-01 1.1181718111038208e-01</leafValues></_>
        <_>
          <internalNodes>
            0 -1 166 6.3256369903683662e-03</internalNodes>
          <leafValues>
            -1.2259884178638458e-01 3.0735999345779419e-01</leafValues></_>
        <_>
          <internalNodes>
            0 -1 387 1.0665103036444634e-04</internalNodes>
          <leafValues>
            1.5546135604381561e-01 -2.3615677654743195e-01</leafValues></_>
        <_>
          <internalNodes>
            0 -1 373 1.2834604422096163e-04</internalNodes>
          <leafValues>
            8.6571000516414642e-02 -4.1048127412796021e-01</leafValues></_>
        <_>
          <internalNodes>
            0 -1 266 3.2846545800566673e-03</internalNodes>
          <leafValues>
            5.6443560868501663e-02 -5.3191441297531128e-01</leafValues></_>
        <_>
          <internalNodes>
            0 -1 477 2.4369580205529928e-04</internalNodes>
          <leafValues>
            -1.4283256232738495e-01 2.7173960208892822e-01</leafValues></_>
        <_>
          <internalNodes>
            0 -1 152 -3.4874430857598782e-03</internalNodes>
          <leafValues>
            2.7678686380386353e-01 -1.2967450916767120e-01</leafValues></_>
        <_>
          <internalNodes>
            0 -1 492 2.2645096760243177e-04</internalNodes>
          <leafValues>
            -2.1647569537162781e-01 1.7179238796234131e-01</leafValues></_>
        <_>
          <internalNodes>
            0 -1 388 -2.8147939592599869e-03</internalNodes>
          <leafValues>
            2.5915285944938660e-01 -1.4611244201660156e-01</leafValues></_>
        <_>
          <internalNodes>
            0 -1 196 1.6432767733931541e-04</internalNodes>
          <leafValues>
            -1.7168594896793365e-01 2.0715950429439545e-01</leafValues></_>
        <_>
          <internalNodes>
            0 -1 460 2.9784608632326126e-02</internalNodes>
          <leafValues>
            -6.0722541064023972e-02 5.9673112630844116e-01</leafValues></_>
        <_>
          <internalNodes>
            0 -1 291 4.2272053542546928e-04</internalNodes>
          <leafValues>
            8.9791014790534973e-02 -4.5303472876548767e-01</leafValues></_>
        <_>
          <internalNodes>
            0 -1 359 -3.7355526001192629e-04</internalNodes>
          <leafValues>
            -5.6408035755157471e-01 5.3846810013055801e-02</leafValues></_>
        <_>
          <internalNodes>
            0 -1 147 3.2532776240259409e-03</internalNodes>
          <leafValues>
            9.3001216650009155e-02 -3.3383083343505859e-01</leafValues></_>
        <_>
          <internalNodes>
            0 -1 229 9.2111751437187195e-03</internalNodes>
          <leafValues>
            -1.1203230917453766e-01 2.8333997726440430e-01</leafValues></_>
        <_>
          <internalNodes>
            0 -1 328 -8.7733363034203649e-04</internalNodes>
          <leafValues>
            2.2948291897773743e-01 -1.6489194333553314e-01</leafValues></_>
        <_>
          <internalNodes>
            0 -1 241 -3.3574417233467102e-02</internalNodes>
          <leafValues>
            3.5667660832405090e-01 -8.6391940712928772e-02</leafValues></_>
        <_>
          <internalNodes>
            0 -1 396 4.7243246808648109e-04</internalNodes>
          <leafValues>
            -1.4290852844715118e-01 2.6547008752822876e-01</leafValues></_>
        <_>
          <internalNodes>
            0 -1 93 5.4405843839049339e-03</internalNodes>
          <leafValues>
            8.3272375166416168e-02 -4.1097027063369751e-01</leafValues></_></weakClassifiers></_>
    <!-- stage 16 -->
    <_>
      <maxWeakCount>52</maxWeakCount>
      <stageThreshold>-1.0244114398956299e+00</stageThreshold>
      <weakClassifiers>
        <_>
          <internalNodes>
            0 -1 18 4.8331570625305176e-01</internalNodes>
          <leafValues>
            -5.5949181318283081e-02 5.1738476753234863e-01</leafValues></_>
        <_>
          <internalNodes>
            0 -1 157 8.3812549710273743e-02</internalNodes>
          <leafValues>
            -1.4018879830837250e-01 3.7950664758682251e-01</leafValues></_>
        <_>
          <internalNodes>
            0 -1 239 3.0164543539285660e-02</internalNodes>
          <leafValues>
            6.9038130342960358e-02 -7.0763957500457764e-01</leafValues></_>
        <_>
          <internalNodes>
            0 -1 216 1.4284027740359306e-02</internalNodes>
          <leafValues>
            -1.5274097025394440e-01 3.1019917130470276e-01</leafValues></_>
        <_>
          <internalNodes>
            0 -1 42 -8.2954578101634979e-02</internalNodes>
          <leafValues>
            5.7927674055099487e-01 -8.2194469869136810e-02</leafValues></_>
        <_>
          <internalNodes>
            0 -1 184 -4.2661503539420664e-04</internalNodes>
          <leafValues>
            2.0081084966659546e-01 -2.3301976919174194e-01</leafValues></_>
        <_>
          <internalNodes>
            0 -1 283 -1.0093266610056162e-04</internalNodes>
          <leafValues>
            -5.3034514188766479e-01 4.6332638710737228e-02</leafValues></_>
        <_>
          <internalNodes>
            0 -1 457 -3.2640662539051846e-05</internalNodes>
          <leafValues>
            -5.4556423425674438e-01 8.2201421260833740e-02</leafValues></_>
        <_>
          <internalNodes>
            0 -1 462 3.3478409750387073e-04</internalNodes>
          <leafValues>
            7.4308142066001892e-02 -4.9434903264045715e-01</leafValues></_>
        <_>
          <internalNodes>
            0 -1 334 3.6879219114780426e-03</internalNodes>
          <leafValues>
            -2.6075497269630432e-01 1.3080276548862457e-01</leafValues></_>
        <_>
          <internalNodes>
            0 -1 269 -1.8317058857064694e-04</internalNodes>
          <leafValues>
            -3.3158999681472778e-01 1.0337631404399872e-01</leafValues></_>
        <_>
          <internalNodes>
            0 -1 138 -7.1524456143379211e-03</internalNodes>
          <leafValues>
            2.4105463922023773e-01 -1.4552442729473114e-01</leafValues></_>
        <_>
          <internalNodes>
            0 -1 301 7.7572220470756292e-04</internalNodes>
          <leafValues>
            -1.5295901894569397e-01 2.3155814409255981e-01</leafValues></_>
        <_>
          <internalNodes>
            0 -1 262 -1.6582164971623570e-04</internalNodes>
          <leafValues>
            -4.0227979421615601e-01 7.5250647962093353e-02</leafValues></_>
        <_>
          <internalNodes>
            0 -1 153 -7.2754561901092529e-02</internalNodes>
          <leafValues>
            3.4320625662803650e-01 -9.7576171159744263e-02</leafValues></_>
        <_>
          <internalNodes>
            0 -1 325 3.1771010253578424e-04</internalNodes>
          <leafValues>
            -3.0674588680267334e-01 1.2157621979713440e-01</leafValues></_>
        <_>
          <internalNodes>
            0 -1 422 3.1044770730659366e-04</internalNodes>
          <leafValues>
            -1.4669787883758545e-01 2.7442720532417297e-01</leafValues></_>
        <_>
          <internalNodes>
            0 -1 149 -7.0659075863659382e-03</internalNodes>
          <leafValues>
            -3.2321617007255554e-01 1.0791836678981781e-01</leafValues></_>
        <_>
          <internalNodes>
            0 -1 435 -1.8255409086123109e-03</internalNodes>
          <leafValues>
            2.6519617438316345e-01 -1.1999096721410751e-01</leafValues></_>
        <_>
          <internalNodes>
            0 -1 424 1.7344988882541656e-03</internalNodes>
          <leafValues>
            -1.2094043940305710e-01 2.6073399186134338e-01</leafValues></_>
        <_>
          <internalNodes>
            0 -1 347 -2.2657692898064852e-04</internalNodes>
          <leafValues>
            -6.3245451450347900e-01 4.5002218335866928e-02</leafValues></_>
        <_>
          <internalNodes>
            0 -1 341 -9.6987103461287916e-05</internalNodes>
          <leafValues>
            -3.9167165756225586e-01 7.5412757694721222e-02</leafValues></_>
        <_>
          <internalNodes>
            0 -1 102 -1.7459228634834290e-02</internalNodes>
          <leafValues>
            3.2225829362869263e-01 -9.9752634763717651e-02</leafValues></_>
        <_>
          <internalNodes>
            0 -1 103 8.4100067615509033e-02</internalNodes>
          <leafValues>
            -5.7415157556533813e-02 5.1852262020111084e-01</leafValues></_>
        <_>
          <internalNodes>
            0 -1 482 -7.5454066973179579e-05</internalNodes>
          <leafValues>
            -2.8615975379943848e-01 1.0465232282876968e-01</leafValues></_>
        <_>
          <internalNodes>
            0 -1 287 -3.1816511182114482e-05</internalNodes>
          <leafValues>
            -4.4273242354393005e-01 5.7393450289964676e-02</leafValues></_>
        <_>
          <internalNodes>
            0 -1 336 2.1124319755472243e-04</internalNodes>
          <leafValues>
            1.6188341379165649e-01 -1.6877160966396332e-01</leafValues></_>
        <_>
          <internalNodes>
            0 -1 132 6.9854152388870716e-04</internalNodes>
          <leafValues>
            -1.3347797095775604e-01 2.2991295158863068e-01</leafValues></_>
        <_>
          <internalNodes>
            0 -1 205 2.1809125319123268e-03</internalNodes>
          <leafValues>
            3.4763388335704803e-02 -7.9977703094482422e-01</leafValues></_>
        <_>
          <internalNodes>
            0 -1 469 1.1190265417098999e-02</internalNodes>
          <leafValues>
            -8.1758461892604828e-02 4.3914940953254700e-01</leafValues></_>
        <_>
          <internalNodes>
            0 -1 112 -3.9448710158467293e-03</internalNodes>
          <leafValues>
            4.7065040469169617e-01 -6.2983550131320953e-02</leafValues></_>
        <_>
          <internalNodes>
            0 -1 133 1.5529256779700518e-04</internalNodes>
          <leafValues>
            -2.1362768113613129e-01 1.5869100391864777e-01</leafValues></_>
        <_>
          <internalNodes>
            0 -1 349 2.5720377452671528e-03</internalNodes>
          <leafValues>
            -1.6235597431659698e-01 2.2663918137550354e-01</leafValues></_>
        <_>
          <internalNodes>
            0 -1 206 1.3331652153283358e-03</internalNodes>
          <leafValues>
            -2.1046414971351624e-01 1.5646643936634064e-01</leafValues></_>
        <_>
          <internalNodes>
            0 -1 413 2.3246356286108494e-03</internalNodes>
          <leafValues>
            7.6560370624065399e-02 -4.5440280437469482e-01</leafValues></_>
        <_>
          <internalNodes>
            0 -1 57 3.0801266431808472e-02</internalNodes>
          <leafValues>
            4.5703049749135971e-02 -5.7703995704650879e-01</leafValues></_>
        <_>
          <internalNodes>
            0 -1 48 3.6270937416702509e-03</internalNodes>
          <leafValues>
            8.4985896944999695e-02 -3.4798097610473633e-01</leafValues></_>
        <_>
          <internalNodes>
            0 -1 391 -1.5670437278458849e-05</internalNodes>
          <leafValues>
            -1.7918783426284790e-01 1.5224508941173553e-01</leafValues></_>
        <_>
          <internalNodes>
            0 -1 355 -5.7947600726038218e-04</internalNodes>
          <leafValues>
            3.1902107596397400e-01 -8.5254304111003876e-02</leafValues></_>
        <_>
          <internalNodes>
            0 -1 346 -5.4974313825368881e-02</internalNodes>
          <leafValues>
            3.7151619791984558e-01 -7.3871932923793793e-02</leafValues></_>
        <_>
          <internalNodes>
            0 -1 35 2.3854368925094604e-01</internalNodes>
          <leafValues>
            4.7388970851898193e-02 -5.9214770793914795e-01</leafValues></_>
        <_>
          <internalNodes>
            0 -1 520 1.9992943853139877e-03</internalNodes>
          <leafValues>
            7.3018260300159454e-02 -3.7009233236312866e-01</leafValues></_>
        <_>
          <internalNodes>
            0 -1 439 -1.9694511138368398e-04</internalNodes>
          <leafValues>
            -4.6734857559204102e-01 5.5174607783555984e-02</leafValues></_>
        <_>
          <internalNodes>
            0 -1 500 -4.6214386820793152e-02</internalNodes>
          <leafValues>
            7.0237457752227783e-01 -4.5746739953756332e-02</leafValues></_>
        <_>
          <internalNodes>
            0 -1 225 3.7550311535596848e-03</internalNodes>
          <leafValues>
            -1.7573657631874084e-01 1.6741842031478882e-01</leafValues></_>
        <_>
          <internalNodes>
            0 -1 53 -8.2946136593818665e-02</internalNodes>
          <leafValues>
            7.4646115303039551e-01 -4.0762748569250107e-02</leafValues></_>
        <_>
          <internalNodes>
            0 -1 237 1.2782913399860263e-03</internalNodes>
          <leafValues>
            -2.5896444916725159e-01 1.4674432575702667e-01</leafValues></_>
        <_>
          <internalNodes>
            0 -1 122 -1.4431562740355730e-03</internalNodes>
          <leafValues>
            2.1081154048442841e-01 -1.2609510123729706e-01</leafValues></_>
        <_>
          <internalNodes>
            0 -1 106 8.1638293340802193e-03</internalNodes>
          <leafValues>
            -1.1514360457658768e-01 2.7635058760643005e-01</leafValues></_>
        <_>
          <internalNodes>
            0 -1 116 3.0429553240537643e-02</internalNodes>
          <leafValues>
            3.4010440111160278e-02 -8.3103239536285400e-01</leafValues></_>
        <_>
          <internalNodes>
            0 -1 300 1.5519210137426853e-03</internalNodes>
          <leafValues>
            3.8731534034013748e-02 -5.2820074558258057e-01</leafValues></_>
        <_>
          <internalNodes>
            0 -1 136 -1.9798423163592815e-03</internalNodes>
          <leafValues>
            1.8698346614837646e-01 -1.3953278958797455e-01</leafValues></_></weakClassifiers></_>
    <!-- stage 17 -->
    <_>
      <maxWeakCount>59</maxWeakCount>
      <stageThreshold>-1.0831323862075806e+00</stageThreshold>
      <weakClassifiers>
        <_>
          <internalNodes>
            0 -1 481 9.6979143563657999e-04</internalNodes>
          <leafValues>
            -3.5588972270488739e-02 5.0136983394622803e-01</leafValues></_>
        <_>
          <internalNodes>
            0 -1 28 5.4051078855991364e-02</internalNodes>
          <leafValues>
            -1.6719469428062439e-01 3.8572469353675842e-01</leafValues></_>
        <_>
          <internalNodes>
            0 -1 175 -1.4018118381500244e-03</internalNodes>
          <leafValues>
            2.2236944735050201e-01 -2.1272997558116913e-01</leafValues></_>
        <_>
          <internalNodes>
            0 -1 308 8.2573583349585533e-03</internalNodes>
          <leafValues>
            8.6332991719245911e-02 -4.1299530863761902e-01</leafValues></_>
        <_>
          <internalNodes>
            0 -1 220 7.8174732625484467e-03</internalNodes>
          <leafValues>
            6.1265882104635239e-02 -5.4696977138519287e-01</leafValues></_>
        <_>
          <internalNodes>
            0 -1 234 7.3877573013305664e-03</internalNodes>
          <leafValues>
            -1.6139967739582062e-01 2.2208501398563385e-01</leafValues></_>
        <_>
          <internalNodes>
            0 -1 20 -5.9184837341308594e-01</internalNodes>
          <leafValues>
            7.0835214853286743e-01 -7.8477099537849426e-02</leafValues></_>
        <_>
          <internalNodes>
            0 -1 449 1.1635716073215008e-03</internalNodes>
          <leafValues>
            -3.8380768895149231e-01 1.1658859997987747e-01</leafValues></_>
        <_>
          <internalNodes>
            0 -1 436 -9.0531939349602908e-05</internalNodes>
          <leafValues>
            -4.0040642023086548e-01 8.5117436945438385e-02</leafValues></_>
        <_>
          <internalNodes>
            0 -1 143 2.7006797492504120e-02</internalNodes>
          <leafValues>
            -7.9354695975780487e-02 6.2560182809829712e-01</leafValues></_>
        <_>
          <internalNodes>
            0 -1 320 5.2515724673867226e-03</internalNodes>
          <leafValues>
            -1.1348081380128860e-01 2.7798116207122803e-01</leafValues></_>
        <_>
          <internalNodes>
            0 -1 450 -4.7470012214034796e-04</internalNodes>
          <leafValues>
            -6.7747604846954346e-01 2.7693508192896843e-02</leafValues></_>
        <_>
          <internalNodes>
            0 -1 193 3.5727485083043575e-03</internalNodes>
          <leafValues>
            1.2160577625036240e-01 -2.4127048254013062e-01</leafValues></_>
        <_>
          <internalNodes>
            0 -1 187 -2.7955300174653530e-04</internalNodes>
          <leafValues>
            1.3884922862052917e-01 -2.3896098136901855e-01</leafValues></_>
        <_>
          <internalNodes>
            0 -1 455 -1.6168280126294121e-05</internalNodes>
          <leafValues>
            -3.7421375513076782e-01 9.6760302782058716e-02</leafValues></_>
        <_>
          <internalNodes>
            0 -1 505 1.0640321299433708e-02</internalNodes>
          <leafValues>
            -9.2024080455303192e-02 3.5998666286468506e-01</leafValues></_>
        <_>
          <internalNodes>
            0 -1 454 5.1908550085499883e-04</internalNodes>
          <leafValues>
            -1.8335141241550446e-01 1.8688268959522247e-01</leafValues></_>
        <_>
          <internalNodes>
            0 -1 378 2.4735796614550054e-04</internalNodes>
          <leafValues>
            4.5209325850009918e-02 -6.7372030019760132e-01</leafValues></_>
        <_>
          <internalNodes>
            0 -1 376 1.4461153477896005e-04</internalNodes>
          <leafValues>
            5.5337585508823395e-02 -5.2978050708770752e-01</leafValues></_>
        <_>
          <internalNodes>
            0 -1 156 -1.4031877741217613e-02</internalNodes>
          <leafValues>
            4.2176526784896851e-01 -7.9187184572219849e-02</leafValues></_>
        <_>
          <internalNodes>
            0 -1 403 -2.5083543732762337e-04</internalNodes>
          <leafValues>
            1.0043840855360031e-01 -3.5271698236465454e-01</leafValues></_>
        <_>
          <internalNodes>
            0 -1 105 -1.7115816473960876e-02</internalNodes>
          <leafValues>
            5.3221243619918823e-01 -7.0947706699371338e-02</leafValues></_>
        <_>
          <internalNodes>
            0 -1 499 8.7060242891311646e-02</internalNodes>
          <leafValues>
            6.6246241331100464e-02 -4.8752826452255249e-01</leafValues></_>
        <_>
          <internalNodes>
            0 -1 483 5.7672034017741680e-04</internalNodes>
          <leafValues>
            -1.0566008836030960e-01 2.7489244937896729e-01</leafValues></_>
        <_>
          <internalNodes>
            0 -1 479 4.8286444507539272e-04</internalNodes>
          <leafValues>
            -7.5808458030223846e-02 4.3241855502128601e-01</leafValues></_>
        <_>
          <internalNodes>
            0 -1 190 5.9212418273091316e-04</internalNodes>
          <leafValues>
            -1.6909106075763702e-01 2.0753288269042969e-01</leafValues></_>
        <_>
          <internalNodes>
            0 -1 335 -1.9097438780590892e-04</internalNodes>
          <leafValues>
            -4.0560850501060486e-01 7.7678449451923370e-02</leafValues></_>
        <_>
          <internalNodes>
            0 -1 243 1.2186449952423573e-02</internalNodes>
          <leafValues>
            5.8502845466136932e-02 -4.8521691560745239e-01</leafValues></_>
        <_>
          <internalNodes>
            0 -1 210 -1.5476814587600529e-04</internalNodes>
          <leafValues>
            1.0119470953941345e-01 -2.5751507282257080e-01</leafValues></_>
        <_>
          <internalNodes>
            0 -1 129 -2.7086591348052025e-02</internalNodes>
          <leafValues>
            5.8670669794082642e-01 -5.2820578217506409e-02</leafValues></_>
        <_>
          <internalNodes>
            0 -1 58 1.6356065869331360e-02</internalNodes>
          <leafValues>
            5.2976254373788834e-02 -6.0768419504165649e-01</leafValues></_>
        <_>
          <internalNodes>
            0 -1 302 -2.6690030936151743e-03</internalNodes>
          <leafValues>
            -5.6418567895889282e-01 4.0935259312391281e-02</leafValues></_>
        <_>
          <internalNodes>
            0 -1 379 4.4087279820814729e-04</internalNodes>
          <leafValues>
            -1.2627331912517548e-01 2.0309072732925415e-01</leafValues></_>
        <_>
          <internalNodes>
            0 -1 211 9.0215634554624557e-04</internalNodes>
          <leafValues>
            -1.2263280898332596e-01 2.2699123620986938e-01</leafValues></_>
        <_>
          <internalNodes>
            0 -1 280 -6.1935897974763066e-05</internalNodes>
          <leafValues>
            -3.5867854952812195e-01 6.9724254310131073e-02</leafValues></_>
        <_>
          <internalNodes>
            0 -1 287 -5.6305329053429887e-05</internalNodes>
          <leafValues>
            -5.0676822662353516e-01 5.1403179764747620e-02</leafValues></_>
        <_>
          <internalNodes>
            0 -1 84 7.4098596815019846e-04</internalNodes>
          <leafValues>
            -9.6926480531692505e-02 2.8441160917282104e-01</leafValues></_>
        <_>
          <internalNodes>
            0 -1 101 4.8066951334476471e-02</internalNodes>
          <leafValues>
            -6.4061768352985382e-02 3.8631659746170044e-01</leafValues></_>
        <_>
          <internalNodes>
            0 -1 468 1.2689944356679916e-02</internalNodes>
          <leafValues>
            -7.8814394772052765e-02 3.2159736752510071e-01</leafValues></_>
        <_>
          <internalNodes>
            0 -1 84 -6.2677322421222925e-04</internalNodes>
          <leafValues>
            2.9824814200401306e-01 -8.7632805109024048e-02</leafValues></_>
        <_>
          <internalNodes>
            0 -1 69 -3.8925092667341232e-03</internalNodes>
          <leafValues>
            -3.7924054265022278e-01 7.2090946137905121e-02</leafValues></_>
        <_>
          <internalNodes>
            0 -1 515 9.3111046589910984e-04</internalNodes>
          <leafValues>
            -1.1529979109764099e-01 2.5513839721679688e-01</leafValues></_>
        <_>
          <internalNodes>
            0 -1 496 -5.1444896962493658e-04</internalNodes>
          <leafValues>
            1.7896227538585663e-01 -1.4784820377826691e-01</leafValues></_>
        <_>
          <internalNodes>
            0 -1 447 2.9566840385086834e-04</internalNodes>
          <leafValues>
            4.3584618717432022e-02 -6.6880089044570923e-01</leafValues></_>
        <_>
          <internalNodes>
            0 -1 32 -4.4309962540864944e-03</internalNodes>
          <leafValues>
            -2.8942862153053284e-01 8.1135712563991547e-02</leafValues></_>
        <_>
          <internalNodes>
            0 -1 433 -1.2528372462838888e-04</internalNodes>
          <leafValues>
            -4.2288202047348022e-01 6.1174735426902771e-02</leafValues></_>
        <_>
          <internalNodes>
            0 -1 47 2.5461195036768913e-04</internalNodes>
          <leafValues>
            9.1771654784679413e-02 -2.6908329129219055e-01</leafValues></_>
        <_>
          <internalNodes>
            0 -1 255 1.0198279051110148e-03</internalNodes>
          <leafValues>
            -1.8637090921401978e-01 1.4306394755840302e-01</leafValues></_>
        <_>
          <internalNodes>
            0 -1 326 -6.6759006585925817e-04</internalNodes>
          <leafValues>
            3.6888885498046875e-01 -7.7187046408653259e-02</leafValues></_>
        <_>
          <internalNodes>
            0 -1 259 2.3711826652288437e-03</internalNodes>
          <leafValues>
            3.8708172738552094e-02 -7.1162062883377075e-01</leafValues></_>
        <_>
          <internalNodes>
            0 -1 80 1.1766466777771711e-03</internalNodes>
          <leafValues>
            -9.6970826387405396e-02 2.4987491965293884e-01</leafValues></_>
        <_>
          <internalNodes>
            0 -1 203 8.7840389460325241e-03</internalNodes>
          <leafValues>
            3.0804328620433807e-02 -8.5239845514297485e-01</leafValues></_>
        <_>
          <internalNodes>
            0 -1 203 6.8551907315850258e-04</internalNodes>
          <leafValues>
            -1.5125411748886108e-01 1.7021080851554871e-01</leafValues></_>
        <_>
          <internalNodes>
            0 -1 514 1.0001577436923981e-02</internalNodes>
          <leafValues>
            -3.8809601217508316e-02 6.8506473302841187e-01</leafValues></_>
        <_>
          <internalNodes>
            0 -1 323 2.1381787955760956e-03</internalNodes>
          <leafValues>
            7.5600981712341309e-02 -3.6824265122413635e-01</leafValues></_>
        <_>
          <internalNodes>
            0 -1 130 2.8466046205721796e-04</internalNodes>
          <leafValues>
            -1.6029073297977448e-01 1.7004828155040741e-01</leafValues></_>
        <_>
          <internalNodes>
            0 -1 361 -5.6828721426427364e-05</internalNodes>
          <leafValues>
            -2.5210607051849365e-01 1.0404845327138901e-01</leafValues></_>
        <_>
          <internalNodes>
            0 -1 366 2.9081871616654098e-05</internalNodes>
          <leafValues>
            8.9341059327125549e-02 -3.0213043093681335e-01</leafValues></_>
        <_>
          <internalNodes>
            0 -1 340 8.6968153482303023e-04</internalNodes>
          <leafValues>
            -1.8055245280265808e-01 1.5194521844387054e-01</leafValues></_></weakClassifiers></_>
    <!-- stage 18 -->
    <_>
      <maxWeakCount>63</maxWeakCount>
      <stageThreshold>-9.7666591405868530e-01</stageThreshold>
      <weakClassifiers>
        <_>
          <internalNodes>
            0 -1 90 -1.2055847793817520e-02</internalNodes>
          <leafValues>
            5.6751561164855957e-01 1.0865221917629242e-01</leafValues></_>
        <_>
          <internalNodes>
            0 -1 60 5.3856503963470459e-01</internalNodes>
          <leafValues>
            -1.3500064611434937e-01 3.6439085006713867e-01</leafValues></_>
        <_>
          <internalNodes>
            0 -1 378 7.1428032242693007e-05</internalNodes>
          <leafValues>
            9.7563289105892181e-02 -3.9761891961097717e-01</leafValues></_>
        <_>
          <internalNodes>
            0 -1 8 2.5961523875594139e-02</internalNodes>
          <leafValues>
            5.7890795171260834e-02 -5.3030645847320557e-01</leafValues></_>
        <_>
          <internalNodes>
            0 -1 240 1.3664294965565205e-03</internalNodes>
          <leafValues>
            -1.9642616808414459e-01 1.6661481559276581e-01</leafValues></_>
        <_>
          <internalNodes>
            0 -1 353 -1.7407913401257247e-04</internalNodes>
          <leafValues>
            -4.6332910656929016e-01 6.6806405782699585e-02</leafValues></_>
        <_>
          <internalNodes>
            0 -1 231 3.1765013933181763e-01</internalNodes>
          <leafValues>
            -1.1903274804353714e-01 6.3131821155548096e-01</leafValues></_>
        <_>
          <internalNodes>
            0 -1 407 1.8270858563482761e-03</internalNodes>
          <leafValues>
            -1.8731293082237244e-01 2.1725635230541229e-01</leafValues></_>
        <_>
          <internalNodes>
            0 -1 139 -8.2097705453634262e-03</internalNodes>
          <leafValues>
            2.1305057406425476e-01 -1.8213248252868652e-01</leafValues></_>
        <_>
          <internalNodes>
            0 -1 71 -3.0974065884947777e-03</internalNodes>
          <leafValues>
            3.0193981528282166e-01 -9.4010695815086365e-02</leafValues></_>
        <_>
          <internalNodes>
            0 -1 480 3.5048034624196589e-04</internalNodes>
          <leafValues>
            -1.6259129345417023e-01 2.0934431254863739e-01</leafValues></_>
        <_>
          <internalNodes>
            0 -1 1 -3.9493423700332642e-01</internalNodes>
          <leafValues>
            -4.9546110630035400e-01 5.7520661503076553e-02</leafValues></_>
        <_>
          <internalNodes>
            0 -1 447 7.0366309955716133e-05</internalNodes>
          <leafValues>
            8.4884129464626312e-02 -3.2890740036964417e-01</leafValues></_>
        <_>
          <internalNodes>
            0 -1 411 -3.7629724829457700e-05</internalNodes>
          <leafValues>
            6.1834264546632767e-02 -3.9612963795661926e-01</leafValues></_>
        <_>
          <internalNodes>
            0 -1 273 2.7843364514410496e-03</internalNodes>
          <leafValues>
            3.6370046436786652e-02 -7.7977538108825684e-01</leafValues></_>
        <_>
          <internalNodes>
            0 -1 264 -2.0340385381132364e-03</internalNodes>
          <leafValues>
            2.9689356684684753e-01 -1.1187558621168137e-01</leafValues></_>
        <_>
          <internalNodes>
            0 -1 272 7.1778740675654262e-05</internalNodes>
          <leafValues>
            1.0617271810770035e-01 -3.2041040062904358e-01</leafValues></_>
        <_>
          <internalNodes>
            0 -1 128 1.0790305677801371e-03</internalNodes>
          <leafValues>
            -1.2744279205799103e-01 2.1223814785480499e-01</leafValues></_>
        <_>
          <internalNodes>
            0 -1 209 -8.0786189064383507e-03</internalNodes>
          <leafValues>
            4.9562615156173706e-01 -6.6232055425643921e-02</leafValues></_>
        <_>
          <internalNodes>
            0 -1 453 -4.2537488043308258e-03</internalNodes>
          <leafValues>
            -7.6944756507873535e-01 4.6527214348316193e-02</leafValues></_>
        <_>
          <internalNodes>
            0 -1 438 4.9302645493298769e-04</internalNodes>
          <leafValues>
            -8.4386318922042847e-02 3.5999593138694763e-01</leafValues></_>
        <_>
          <internalNodes>
            0 -1 413 -3.2164012081921101e-03</internalNodes>
          <leafValues>
            -6.4526015520095825e-01 5.5671017616987228e-02</leafValues></_>
        <_>
          <internalNodes>
            0 -1 473 -2.0302925258874893e-03</internalNodes>
          <leafValues>
            2.1489852666854858e-01 -1.3680899143218994e-01</leafValues></_>
        <_>
          <internalNodes>
            0 -1 192 -3.8360602047760040e-05</internalNodes>
          <leafValues>
            1.0760645568370819e-01 -2.5126162171363831e-01</leafValues></_>
        <_>
          <internalNodes>
            0 -1 160 -9.4836689531803131e-03</internalNodes>
          <leafValues>
            3.8742360472679138e-01 -7.7676713466644287e-02</leafValues></_>
        <_>
          <internalNodes>
            0 -1 236 7.1004584431648254e-02</internalNodes>
          <leafValues>
            -8.7403804063796997e-02 3.0699667334556580e-01</leafValues></_>
        <_>
          <internalNodes>
            0 -1 74 -7.3428582400083542e-03</internalNodes>
          <leafValues>
            -5.0030386447906494e-01 6.4156606793403625e-02</leafValues></_>
        <_>
          <internalNodes>
            0 -1 393 -1.5263221575878561e-04</internalNodes>
          <leafValues>
            -2.3526722192764282e-01 1.2180489301681519e-01</leafValues></_>
        <_>
          <internalNodes>
            0 -1 278 -8.8374031474813819e-04</internalNodes>
          <leafValues>
            3.1623232364654541e-01 -1.0824239253997803e-01</leafValues></_>
        <_>
          <internalNodes>
            0 -1 135 9.3863974325358868e-04</internalNodes>
          <leafValues>
            -2.4911721050739288e-01 1.4068278670310974e-01</leafValues></_>
        <_>
          <internalNodes>
            0 -1 94 -3.1660587992519140e-03</internalNodes>
          <leafValues>
            5.5295342206954956e-01 -5.4719824343919754e-02</leafValues></_>
        <_>
          <internalNodes>
            0 -1 386 2.3822693037800491e-04</internalNodes>
          <leafValues>
            6.3564181327819824e-02 -5.3457003831863403e-01</leafValues></_>
        <_>
